{"learner":{"attributes":{"best_iteration":"99","best_ntree_limit":"100","scikit_learn":"{\"use_label_encoder\": null, \"n_estimators\": 100, \"objective\": \"binary:logistic\", \"max_depth\": 6, \"max_leaves\": null, \"max_bin\": null, \"grow_policy\": null, \"learning_rate\": 0.1, \"verbosity\": null, \"booster\": null, \"tree_method\": \"hist\", \"gamma\": null, \"min_child_weight\": null, \"max_delta_step\": null, \"subsample\": 0.8, \"sampling_method\": null, \"colsample_bytree\": 1.0, \"colsample_bylevel\": null, \"colsample_bynode\": null, \"reg_alpha\": null, \"reg_lambda\": null, \"scale_pos_weight\": null, \"base_score\": null, \"missing\": NaN, \"num_parallel_tree\": null, \"random_state\": 42, \"n_jobs\": -1, \"monotone_constraints\": null, \"interaction_constraints\": null, \"importance_type\": null, \"gpu_id\": null, \"validate_parameters\": null, \"predictor\": null, \"enable_categorical\": false, \"feature_types\": null, \"max_cat_to_onehot\": null, \"max_cat_threshold\": null, \"eval_metric\": null, \"early_stopping_rounds\": null, \"callbacks\": null, \"classes_\": [0, 1], \"n_classes_\": 2, \"_estimator_type\": \"classifier\"}"},"feature_names":["PC","Target","IsBackward","LocalHistory"],"feature_types":["int","int","int","int"],"gradient_booster":{"model":{"gbtree_model_param":{"num_parallel_tree":"1","num_trees":"100","size_leaf_vector":"0"},"tree_info":[0,0,0,0,0,0,0,0,0,0,0,0,0,0,0,0,0,0,0,0,0,0,0,0,0,0,0,0,0,0,0,0,0,0,0,0,0,0,0,0,0,0,0,0,0,0,0,0,0,0,0,0,0,0,0,0,0,0,0,0,0,0,0,0,0,0,0,0,0,0,0,0,0,0,0,0,0,0,0,0,0,0,0,0,0,0,0,0,0,0,0,0,0,0,0,0,0,0,0,0],"trees":[{"base_weights":[4.6112098E-2,-1.9747081E0,1.5693933E0,-1.9829392E0,-1.588633E0,1.9771541E0,1.1278187E0,-1.9999164E-1,-1.8987749E0,-1.9318484E0,3.3526012E-1,1.9999847E-1,5.962704E-1,-1.9839479E0,1.9799672E0,-1.9498588E0,-1.3647616E0,-5.294118E-2,-1.9454789E-1,1.3181819E0,2.5777778E-1,5.0560564E-2,1.2109046E0,-1.9999231E-1,5E-1,1.4890262E0,1.9899191E0,-1.7768018E-1,-1.9558318E-1,-1.396769E0,-1.3427562E-1,1.3720931E-1,-5E-2,9.282701E-2,5.3846157E-1,1.0560828E0,-9.9239373E-1,1.911618E0,8.361153E-1,3.076923E-2,6.860707E-1,5.092251E-1,1.6507888E0,1.9999743E-1,1.9406989E0,-1.3115458E-1,-1.9546421E-1,1.4E-1,-2.4719102E-2,1.9065421E-2,-2.0224718E-2,1.4042553E-1,2.8395062E-2,1.39737995E-2,1.6500711E-1,-1.8212514E-1,-3.1168832E-2,1.9279538E-1,3.1578947E-2,3.509934E-2,1.2430167E-1,4.6728972E-2,-4.782609E-2,1.9672131E-2,8.429752E-2,1.487805E-1,3.3333335E-2,1.5864365E-1,1.8261878E-1,1.9845818E-1,1.9180943E-1],"categories":[],"categories_nodes":[],"categories_segments":[],"categories_sizes":[],"default_left":[0,0,0,0,0,0,0,0,0,0,0,0,0,0,0,0,0,0,0,0,0,0,0,0,0,0,0,0,0,0,0,0,0,0,0,0,0,0,0,0,0,0,0,0,0,0,0,0,0,0,0,0,0,0,0,0,0,0,0,0,0,0,0,0,0,0,0,0,0,0,0],"id":0,"left_children":[1,3,5,7,9,11,13,-1,15,17,19,-1,21,23,25,27,29,-1,-1,31,33,35,37,-1,39,41,43,-1,-1,45,47,-1,-1,49,51,53,55,57,59,61,63,65,67,-1,69,-1,-1,-1,-1,-1,-1,-1,-1,-1,-1,-1,-1,-1,-1,-1,-1,-1,-1,-1,-1,-1,-1,-1,-1,-1,-1],"loss_changes":[1.3685759E6,6.040625E2,4.5642688E4,2.635625E2,2.6379248E3,4.1538438E3,3.227342E5,0E0,8.5459375E2,6.376367E1,4.577452E1,0E0,7.193974E2,1.0392656E3,4.638125E2,2.6171875E1,1.0800195E2,0E0,0E0,4.998947E0,2.5993206E1,1.1936978E3,2.6331946E2,0E0,1.4646984E1,3.0065674E2,4.246875E1,0E0,0E0,1.24723145E2,1.2603034E1,0E0,0E0,1.0300524E1,4.543489E1,3.151902E2,3.146834E2,8.534912E0,1.2964822E2,1.1055838E1,9.067101E0,4.6149696E1,1.5526855E1,0E0,1.1984375E1,0E0,0E0,0E0,0E0,0E0,0E0,0E0,0E0,0E0,0E0,0E0,0E0,0E0,0E0,0E0,0E0,0E0,0E0,0E0,0E0,0E0,0E0,0E0,0E0,0E0,0E0],"parents":[2147483647,0,0,1,1,2,2,3,3,4,4,5,5,6,6,8,8,9,9,10,10,12,12,13,13,14,14,15,15,16,16,19,19,20,20,21,21,22,22,24,24,25,25,26,26,29,29,30,30,33,33,34,34,35,35,36,36,37,37,38,38,39,39,40,40,41,41,42,42,44,44],"right_children":[2,4,6,8,10,12,14,-1,16,18,20,-1,22,24,26,28,30,-1,-1,32,34,36,38,-1,40,42,44,-1,-1,46,48,-1,-1,50,52,54,56,58,60,62,64,66,68,-1,70,-1,-1,-1,-1,-1,-1,-1,-1,-1,-1,-1,-1,-1,-1,-1,-1,-1,-1,-1,-1,-1,-1,-1,-1,-1,-1],"split_conditions":[1.05E2,1E0,2.05E2,1.38716455E14,1E0,1.38716455E14,2.2E2,-1.9999164E-1,1E0,1.387168E14,1.387168E14,1.9999847E-1,1.7E2,1.387168E14,2.55E2,1.387168E14,8.6E1,-5.294118E-2,-1.9454789E-1,6.4E1,5.8E1,1.28E2,1.71E2,-1.9999231E-1,2.12E2,1E0,1.38716455E14,-1.7768018E-1,-1.9558318E-1,8.5E1,8.7E1,1.3720931E-1,-5E-2,3.2E1,6.4E1,1.22E2,1.29E2,1E0,1.9E2,2.08E2,1E0,2.24E2,2.53E2,1.9999743E-1,1E0,-1.3115458E-1,-1.9546421E-1,1.4E-1,-2.4719102E-2,1.9065421E-2,-2.0224718E-2,1.4042553E-1,2.8395062E-2,1.39737995E-2,1.6500711E-1,-1.8212514E-1,-3.1168832E-2,1.9279538E-1,3.1578947E-2,3.509934E-2,1.2430167E-1,4.6728972E-2,-4.782609E-2,1.9672131E-2,8.429752E-2,1.487805E-1,3.3333335E-2,1.5864365E-1,1.8261878E-1,1.9845818E-1,1.9180943E-1],"split_indices":[3,2,3,0,3,0,3,0,3,0,0,0,3,0,3,0,3,0,0,3,3,3,3,0,3,2,0,0,0,3,3,0,0,3,3,3,3,2,3,3,2,3,3,0,2,0,0,0,0,0,0,0,0,0,0,0,0,0,0,0,0,0,0,0,0,0,0,0,0,0,0],"split_type":[0,0,0,0,0,0,0,0,0,0,0,0,0,0,0,0,0,0,0,0,0,0,0,0,0,0,0,0,0,0,0,0,0,0,0,0,0,0,0,0,0,0,0,0,0,0,0,0,0,0,0,0,0,0,0,0,0,0,0,0,0,0,0,0,0,0,0,0,0,0,0],"sum_hessian":[4.445895E5,1.9108775E5,2.5350175E5,1.8709475E5,3.993E3,1.3179525E5,1.217065E5,1.5567075E5,3.1424E4,3.3885E3,6.045E2,1.2965125E5,2.144E3,2.616375E4,9.554275E4,2.8678E4,2.746E3,3.3E1,3.3555E3,4.3E1,5.615E2,1.13625E3,1.00775E3,2.599675E4,1.67E2,1.90125E3,9.36415E4,9.6675E2,2.771125E4,2.67625E3,6.975E1,4.2E1,1E0,3.545E2,2.07E2,5.785E2,5.5775E2,3.4975E2,6.58E2,4.775E1,1.1925E2,2.7E2,1.63125E3,7.772375E4,1.591775E4,2.3245E3,3.5175E2,4E0,6.575E1,2.665E2,8.8E1,4.6E1,1.61E2,2.28E2,3.505E2,2.5075E2,3.07E2,3.46E2,3.75E0,3.01E2,3.57E2,2.575E1,2.2E1,2.95E1,8.975E1,4E1,2.3E2,1.20075E3,4.305E2,5.38225E3,1.05355E4],"tree_param":{"num_deleted":"0","num_feature":"4","num_nodes":"71","size_leaf_vector":"0"}},{"base_weights":[4.3394763E-2,-1.7953644E0,1.4286329E0,-1.802823E0,-1.4454119E0,1.797926E0,1.0280967E0,-1.8186542E-1,-1.7248242E0,-1.7515074E0,3.1813958E-1,1.818718E-1,5.534062E-1,-1.804427E0,1.8002692E0,-1.7722166E0,-1.2285849E0,-6.4469606E-2,-1.762419E-1,1.1470506E0,2.486213E-1,5.357262E-2,1.1172056E0,-1.8186662E-1,4.195326E-1,1.3576345E0,1.809347E0,-1.6249692E-1,-1.7771988E-1,-1.2593498E0,-6.2082373E-2,1.1669242E0,2.5008095E-2,3.0065037E-3,3.9666924E-1,-9.405568E-1,9.427727E-1,1.7488234E0,7.714874E-1,1.4225967E-1,6.072975E-1,4.6922824E-1,1.5036654E0,1.8187092E-1,1.7634249E0,-1.1436184E-1,-1.5933995E-1,3.80399E-2,-4.375195E-2,1.03921354E-1,1.6292758E-1,1.560182E-2,-1.4182341E-1,9.250709E-2,2.8676225E-2,-7.932707E-4,-1.2352257E-1,1.235921E-1,3.087209E-3,1.7653191E-1,5.8879055E-2,3.0971227E-2,1.1493158E-1,4.4168193E-2,-6.267853E-3,1.1319462E-1,4.9912024E-2,1.3650304E-1,2.9401029E-2,1.4393918E-1,1.6803074E-1,1.8044749E-1,1.7422174E-1],"categories":[],"categories_nodes":[],"categories_segments":[],"categories_sizes":[],"default_left":[0,0,0,0,0,0,0,0,0,0,0,0,0,0,0,0,0,0,0,0,0,0,0,0,0,0,0,0,0,0,0,0,0,0,0,0,0,0,0,0,0,0,0,0,0,0,0,0,0,0,0,0,0,0,0,0,0,0,0,0,0,0,0,0,0,0,0,0,0,0,0,0,0],"id":1,"left_children":[1,3,5,7,9,11,13,-1,15,17,19,-1,21,23,25,27,29,-1,-1,31,33,35,37,-1,39,41,43,-1,-1,45,47,49,-1,51,53,55,57,59,61,63,65,67,69,-1,71,-1,-1,-1,-1,-1,-1,-1,-1,-1,-1,-1,-1,-1,-1,-1,-1,-1,-1,-1,-1,-1,-1,-1,-1,-1,-1,-1,-1],"loss_changes":[1.1220224E6,4.915E2,3.7159906E4,2.256875E2,2.1354287E3,3.3813438E3,2.636094E5,0E0,7.3360156E2,3.9563477E1,3.3468567E1,0E0,6.0564795E2,8.1835156E2,3.780625E2,1.8070312E1,9.791992E1,0E0,0E0,5.111885E-1,1.9696747E1,1.00895184E3,2.19198E2,0E0,8.507107E0,2.4673071E2,3.671875E1,0E0,0E0,1.010332E2,1.1997835E1,8.930054E-1,0E0,4.4743492E1,1.936261E1,1.4809317E2,1.6101074E2,5.7822266E0,1.1383969E2,4.1974277E0,5.003296E0,4.2087685E1,1.6173096E1,0E0,1.05703125E1,0E0,0E0,0E0,0E0,0E0,0E0,0E0,0E0,0E0,0E0,0E0,0E0,0E0,0E0,0E0,0E0,0E0,0E0,0E0,0E0,0E0,0E0,0E0,0E0,0E0,0E0,0E0,0E0],"parents":[2147483647,0,0,1,1,2,2,3,3,4,4,5,5,6,6,8,8,9,9,10,10,12,12,13,13,14,14,15,15,16,16,19,19,20,20,21,21,22,22,24,24,25,25,26,26,29,29,30,30,31,31,33,33,34,34,35,35,36,36,37,37,38,38,39,39,40,40,41,41,42,42,44,44],"right_children":[2,4,6,8,10,12,14,-1,16,18,20,-1,22,24,26,28,30,-1,-1,32,34,36,38,-1,40,42,44,-1,-1,46,48,50,-1,52,54,56,58,60,62,64,66,68,70,-1,72,-1,-1,-1,-1,-1,-1,-1,-1,-1,-1,-1,-1,-1,-1,-1,-1,-1,-1,-1,-1,-1,-1,-1,-1,-1,-1,-1,-1],"split_conditions":[1.05E2,1E0,2.05E2,1.38716455E14,1E0,1.38716455E14,2.2E2,-1.8186542E-1,1E0,1.387168E14,1.387168E14,1.818718E-1,1.7E2,1.387168E14,2.55E2,1.387168E14,8.6E1,-6.4469606E-2,-1.762419E-1,6.4E1,2E1,1E0,1.71E2,-1.8186662E-1,2.14E2,1E0,1.38716455E14,-1.6249692E-1,-1.7771988E-1,6.4E1,9.6E1,6.1E1,2.5008095E-2,1.6E1,3.2E1,1.28E2,1.28E2,1E0,1.9E2,2.08E2,2.15E2,2.24E2,2.53E2,1.8187092E-1,1E0,-1.1436184E-1,-1.5933995E-1,3.80399E-2,-4.375195E-2,1.03921354E-1,1.6292758E-1,1.560182E-2,-1.4182341E-1,9.250709E-2,2.8676225E-2,-7.932707E-4,-1.2352257E-1,1.235921E-1,3.087209E-3,1.7653191E-1,5.8879055E-2,3.0971227E-2,1.1493158E-1,4.4168193E-2,-6.267853E-3,1.1319462E-1,4.9912024E-2,1.3650304E-1,2.9401029E-2,1.4393918E-1,1.6803074E-1,1.8044749E-1,1.7422174E-1],"split_indices":[3,2,3,0,3,0,3,0,3,0,0,0,3,0,3,0,3,0,0,3,3,2,3,0,3,2,0,0,0,3,3,3,0,3,3,3,3,2,3,3,3,3,3,0,2,0,0,0,0,0,0,0,0,0,0,0,0,0,0,0,0,0,0,0,0,0,0,0,0,0,0,0,0],"split_type":[0,0,0,0,0,0,0,0,0,0,0,0,0,0,0,0,0,0,0,0,0,0,0,0,0,0,0,0,0,0,0,0,0,0,0,0,0,0,0,0,0,0,0,0,0,0,0,0,0,0,0,0,0,0,0,0,0,0,0,0,0,0,0,0,0,0,0,0,0,0,0,0,0],"sum_hessian":[4.4050444E5,1.8926912E5,2.5123533E5,1.853153E5,3.9538186E3,1.3071395E5,1.2052137E5,1.5402995E5,3.1285354E4,3.369065E3,5.8475366E2,1.2856558E5,2.1483794E3,2.581695E4,9.4704414E4,2.8555633E4,2.7297207E3,3.347654E1,3.3355884E3,4.404747E1,5.4070624E2,1.139371E3,1.0090084E3,2.5652887E4,1.6406258E2,1.9062462E3,9.279817E4,9.452697E2,2.7610363E4,2.6595005E3,7.022034E1,4.2798252E1,1.2492191E0,2.0373148E2,3.3697473E2,5.379183E2,6.0145264E2,3.5548627E2,6.5352216E2,6.695201E1,9.711057E1,2.6969855E2,1.6365476E3,7.705094E4,1.5747233E4,1.9784795E3,6.8102094E2,3.2226147E1,3.7994194E1,3.607992E1,6.71833E0,1.847332E2,1.8998274E1,5.6744843E1,2.802299E2,1.293989E2,4.0851938E2,4.5487036E2,1.4658229E2,3.4998764E2,5.498629E0,2.9490915E2,3.58613E2,2.6735403E1,4.0216606E1,1.4982611E1,8.212796E1,4.301154E1,2.2668701E2,1.206642E3,4.2990573E2,5.3355415E3,1.0411692E4],"tree_param":{"num_deleted":"0","num_feature":"4","num_nodes":"73","size_leaf_vector":"0"}},{"base_weights":[3.9176058E-2,-1.6604282E0,1.3210306E0,-1.6674597E0,-1.3336163E0,1.6627578E0,9.511217E-1,-1.6825014E-1,-1.5934926E0,-1.6232482E0,2.8432077E-1,1.6825701E-1,4.9455008E-1,-1.6682564E0,1.6648438E0,-1.6389773E0,-1.1260494E0,-6.399619E-2,-1.6333292E-1,1.1140288E0,2.1427748E-1,5.0991565E-2,9.913551E-1,-1.682524E-1,3.5723355E-1,1.2422563E0,1.6735252E0,-1.500456E-1,-1.6437894E-1,-1.154575E0,-4.794468E-2,1.1557924E0,-2.0835668E-2,4.700384E-2,4.338411E-1,-8.504438E-1,8.6100036E-1,1.6218011E0,6.638808E-1,-7.926089E-2,5.0428355E-1,3.8441116E-1,1.3848566E0,1.682378E-1,1.6284069E0,-1.0777837E-1,-1.6699007E-1,1.23592496E-1,-1.3741127E-2,9.6161656E-2,1.458246E-1,1.6263207E-2,-5.5016648E-2,8.134076E-2,2.3649234E-2,9.439676E-3,-1.1532165E-1,1.1131958E-1,8.81652E-3,1.6357215E-1,4.7228325E-2,2.2718063E-2,1.0328411E-1,6.983163E-2,-2.6381603E-2,2.140803E-2,6.102056E-2,1.2784481E-1,2.3713985E-2,1.3244091E-1,1.5533629E-1,1.6679893E-1,1.6072284E-1],"categories":[],"categories_nodes":[],"categories_segments":[],"categories_sizes":[],"default_left":[0,0,0,0,0,0,0,0,0,0,0,0,0,0,0,0,0,0,0,0,0,0,0,0,0,0,0,0,0,0,0,0,0,0,0,0,0,0,0,0,0,0,0,0,0,0,0,0,0,0,0,0,0,0,0,0,0,0,0,0,0,0,0,0,0,0,0,0,0,0,0,0,0],"id":2,"left_children":[1,3,5,7,9,11,13,-1,15,17,19,-1,21,23,25,27,29,-1,-1,31,33,35,37,-1,39,41,43,-1,-1,45,47,49,-1,51,53,55,57,59,61,63,65,67,69,-1,71,-1,-1,-1,-1,-1,-1,-1,-1,-1,-1,-1,-1,-1,-1,-1,-1,-1,-1,-1,-1,-1,-1,-1,-1,-1,-1,-1,-1],"loss_changes":[9.347656E5,4.2171875E2,3.0916281E4,1.9825E2,1.8235386E3,2.9417188E3,2.1958272E5,0E0,6.473828E2,3.1664062E1,3.4139248E1,0E0,4.6747803E2,7.274297E2,3.3654688E2,1.6085938E1,8.3316895E1,0E0,0E0,2.7709045E0,2.0059603E1,8.199401E2,2.0552234E2,0E0,1.1384825E1,2.2723462E2,3.3375E1,0E0,0E0,1.0271338E2,8.316419E0,1.2148323E0,0E0,2.159433E1,1.750766E1,1.5215771E2,1.1517569E2,4.6904907E0,1.0615506E2,6.6999335E0,3.9374924E0,3.482224E1,1.4200684E1,0E0,9.78125E0,0E0,0E0,0E0,0E0,0E0,0E0,0E0,0E0,0E0,0E0,0E0,0E0,0E0,0E0,0E0,0E0,0E0,0E0,0E0,0E0,0E0,0E0,0E0,0E0,0E0,0E0,0E0,0E0],"parents":[2147483647,0,0,1,1,2,2,3,3,4,4,5,5,6,6,8,8,9,9,10,10,12,12,13,13,14,14,15,15,16,16,19,19,20,20,21,21,22,22,24,24,25,25,26,26,29,29,30,30,31,31,33,33,34,34,35,35,36,36,37,37,38,38,39,39,40,40,41,41,42,42,44,44],"right_children":[2,4,6,8,10,12,14,-1,16,18,20,-1,22,24,26,28,30,-1,-1,32,34,36,38,-1,40,42,44,-1,-1,46,48,50,-1,52,54,56,58,60,62,64,66,68,70,-1,72,-1,-1,-1,-1,-1,-1,-1,-1,-1,-1,-1,-1,-1,-1,-1,-1,-1,-1,-1,-1,-1,-1,-1,-1,-1,-1,-1,-1],"split_conditions":[1.05E2,1E0,2.05E2,1.38716455E14,1E0,1.38716455E14,2.21E2,-1.6825014E-1,1E0,1.387168E14,1.387168E14,1.6825701E-1,1.7E2,1.38716455E14,2.55E2,1.387168E14,8.6E1,-6.399619E-2,-1.6333292E-1,6.4E1,4.8E1,1E0,1.71E2,-1.682524E-1,1E0,1E0,1.387168E14,-1.500456E-1,-1.6437894E-1,8.5E1,8.7E1,1.7E1,-2.0835668E-2,3.2E1,6.4E1,1.28E2,1.28E2,1E0,1.9E2,2.08E2,2.13E2,2.24E2,2.53E2,1.682378E-1,1E0,-1.0777837E-1,-1.6699007E-1,1.23592496E-1,-1.3741127E-2,9.6161656E-2,1.458246E-1,1.6263207E-2,-5.5016648E-2,8.134076E-2,2.3649234E-2,9.439676E-3,-1.1532165E-1,1.1131958E-1,8.81652E-3,1.6357215E-1,4.7228325E-2,2.2718063E-2,1.0328411E-1,6.983163E-2,-2.6381603E-2,2.140803E-2,6.102056E-2,1.2784481E-1,2.3713985E-2,1.3244091E-1,1.5533629E-1,1.6679893E-1,1.6072284E-1],"split_indices":[3,2,3,0,3,0,3,0,3,0,0,0,3,0,3,0,3,0,0,3,3,2,3,0,2,2,0,0,0,3,3,3,0,3,3,3,3,2,3,3,3,3,3,0,2,0,0,0,0,0,0,0,0,0,0,0,0,0,0,0,0,0,0,0,0,0,0,0,0,0,0,0,0],"split_type":[0,0,0,0,0,0,0,0,0,0,0,0,0,0,0,0,0,0,0,0,0,0,0,0,0,0,0,0,0,0,0,0,0,0,0,0,0,0,0,0,0,0,0,0,0,0,0,0,0,0,0,0,0,0,0,0,0,0,0,0,0,0,0,0,0,0,0,0,0,0,0,0,0],"sum_hessian":[4.2905622E5,1.8446919E5,2.4458702E5,1.8057977E5,3.8894229E3,1.27134695E5,1.1745232E5,1.5004527E5,3.05345E4,3.2988772E3,5.905456E2,1.25014055E5,2.120638E3,2.514997E4,9.230235E4,2.782452E4,2.7099805E3,3.4132236E1,3.2647449E3,4.481213E1,5.4573346E2,1.1209403E3,9.996977E2,2.4974223E4,1.7574825E2,1.8609226E3,9.044143E4,9.446564E2,2.6879863E4,2.6400564E3,6.992412E1,4.3562325E1,1.249805E0,3.1044006E2,2.3529338E2,5.3050586E2,5.904345E2,3.404051E2,6.5929254E2,4.4403763E1,1.3134448E2,2.657766E2,1.595146E3,7.557607E4,1.4865359E4,2.3003596E3,3.3969662E2,3.7204392E0,6.6203674E1,2.907531E1,1.4487017E1,2.6069098E2,4.974911E1,7.9420334E1,1.5587305E2,1.28911E2,4.0159485E2,4.4483374E2,1.4560077E2,3.359143E2,4.490807E0,3.0266956E2,3.56623E2,7.983498E0,3.6420265E1,3.592873E1,9.541576E1,3.650225E1,2.2927435E2,1.1805222E3,4.1462384E2,5.154277E3,9.711082E3],"tree_param":{"num_deleted":"0","num_feature":"4","num_nodes":"73","size_leaf_vector":"0"}},{"base_weights":[3.7349004E-2,-1.5543824E0,1.23716E0,-1.561417E0,-1.2295003E0,1.5581529E0,8.90296E-1,-1.576787E-1,-1.4858606E0,-1.5136138E0,2.418328E-1,1.5768634E-1,4.7067267E-1,-1.5636934E0,1.5589782E0,-1.5308796E0,-1.0311337E0,-4.65714E-2,-1.5245987E-1,1.0025691E0,1.8721122E-1,5.5195678E-2,9.2785865E-1,-1.57682E-1,3.5115102E-1,1.1519183E0,1.5675732E0,-1.3942228E-1,-1.5357052E-1,-1.0576615E0,-1.3411315E-1,1.04553126E-1,-1.9682433E-2,-1.6174236E-2,3.01107E-1,8.6984634E-1,-7.4569076E-1,1.0770175E0,-2.731985E-1,-1.4888075E-2,4.4599354E-1,3.8187507E-1,1.2832106E0,1.5768668E-1,1.5220916E0,-9.4719544E-2,-1.3845478E-1,-4.4607455E-3,-1.5733048E-1,1.5955692E-2,-1.3600606E-1,8.6885236E-2,2.0381564E-2,1.3725659E-3,1.333254E-1,-1.497036E-1,-1.4877743E-2,1.5193395E-1,8.100676E-2,-1.5249799E-1,1.2354686E-2,3.2147076E-2,-1.19717434E-1,5.7357814E-2,2.9315412E-2,1.4052325E-1,2.7526313E-2,1.2275063E-1,1.43692E-1,1.5621829E-1,1.5013866E-1],"categories":[],"categories_nodes":[],"categories_segments":[],"categories_sizes":[],"default_left":[0,0,0,0,0,0,0,0,0,0,0,0,0,0,0,0,0,0,0,0,0,0,0,0,0,0,0,0,0,0,0,0,0,0,0,0,0,0,0,0,0,0,0,0,0,0,0,0,0,0,0,0,0,0,0,0,0,0,0,0,0,0,0,0,0,0,0,0,0,0,0],"id":3,"left_children":[1,3,5,7,9,11,13,-1,15,17,19,-1,21,23,25,27,29,-1,-1,31,33,35,37,-1,39,41,43,-1,-1,45,47,-1,-1,49,51,53,55,57,59,61,63,65,67,-1,69,-1,-1,-1,-1,-1,-1,-1,-1,-1,-1,-1,-1,-1,-1,-1,-1,-1,-1,-1,-1,-1,-1,-1,-1,-1,-1],"loss_changes":[7.895243E5,4.0421875E2,2.6244625E4,1.995625E2,1.5765396E3,2.4903125E3,1.8592069E5,0E0,6.0059766E2,3.5669434E1,2.5205482E1,0E0,3.935628E2,6.103906E2,3.0971875E2,1.55078125E1,6.2987305E1,0E0,0E0,2.3034668E0,1.3241198E1,7.096458E2,1.7702673E2,0E0,5.7697678E0,1.860332E2,3.4453125E1,0E0,0E0,9.172876E1,9.893431E0,0E0,0E0,4.8882298E1,2.0057941E1,2.1388934E2,2.4577667E2,1.024104E2,5.4708515E1,1.4354909E1,2.4034672E0,2.9088562E1,1.1728027E1,0E0,9.957031E0,0E0,0E0,0E0,0E0,0E0,0E0,0E0,0E0,0E0,0E0,0E0,0E0,0E0,0E0,0E0,0E0,0E0,0E0,0E0,0E0,0E0,0E0,0E0,0E0,0E0,0E0],"parents":[2147483647,0,0,1,1,2,2,3,3,4,4,5,5,6,6,8,8,9,9,10,10,12,12,13,13,14,14,15,15,16,16,19,19,20,20,21,21,22,22,24,24,25,25,26,26,29,29,30,30,33,33,34,34,35,35,36,36,37,37,38,38,39,39,40,40,41,41,42,42,44,44],"right_children":[2,4,6,8,10,12,14,-1,16,18,20,-1,22,24,26,28,30,-1,-1,32,34,36,38,-1,40,42,44,-1,-1,46,48,-1,-1,50,52,54,56,58,60,62,64,66,68,-1,70,-1,-1,-1,-1,-1,-1,-1,-1,-1,-1,-1,-1,-1,-1,-1,-1,-1,-1,-1,-1,-1,-1,-1,-1,-1,-1],"split_conditions":[1.08E2,1E0,2.05E2,1.38716455E14,1E0,1.38716455E14,2.2E2,-1.576787E-1,1E0,1.387168E14,1.387168E14,1.5768634E-1,1.7E2,1.38716455E14,2.55E2,1.387168E14,8.6E1,-4.65714E-2,-1.5245987E-1,6.4E1,2E1,1.28E2,1.92E2,-1.57682E-1,2.09E2,1E0,1.38716455E14,-1.3942228E-1,-1.5357052E-1,6.4E1,1.07E2,1.04553126E-1,-1.9682433E-2,1.6E1,3.2E1,1.22E2,1.29E2,1.71E2,1.93E2,2.08E2,2.16E2,2.22E2,2.53E2,1.5768668E-1,1E0,-9.4719544E-2,-1.3845478E-1,-4.4607455E-3,-1.5733048E-1,1.5955692E-2,-1.3600606E-1,8.6885236E-2,2.0381564E-2,1.3725659E-3,1.333254E-1,-1.497036E-1,-1.4877743E-2,1.5193395E-1,8.100676E-2,-1.5249799E-1,1.2354686E-2,3.2147076E-2,-1.19717434E-1,5.7357814E-2,2.9315412E-2,1.4052325E-1,2.7526313E-2,1.2275063E-1,1.43692E-1,1.5621829E-1,1.5013866E-1],"split_indices":[3,2,3,0,3,0,3,0,3,0,0,0,3,0,3,0,3,0,0,3,3,3,3,0,3,2,0,0,0,3,3,0,0,3,3,3,3,3,3,3,3,3,3,0,2,0,0,0,0,0,0,0,0,0,0,0,0,0,0,0,0,0,0,0,0,0,0,0,0,0,0],"split_type":[0,0,0,0,0,0,0,0,0,0,0,0,0,0,0,0,0,0,0,0,0,0,0,0,0,0,0,0,0,0,0,0,0,0,0,0,0,0,0,0,0,0,0,0,0,0,0,0,0,0,0,0,0,0,0,0,0,0,0,0,0,0,0,0,0,0,0,0,0,0,0],"sum_hessian":[4.1340984E5,1.7768431E5,2.3572552E5,1.7391478E5,3.7695183E3,1.2242662E5,1.132989E5,1.4450019E5,2.9414605E4,3.1594094E3,6.101088E2,1.2035542E5,2.0711953E3,2.4261299E4,8.90376E4,2.676267E4,2.6519355E3,3.3225895E1,3.1261836E3,3.970914E1,5.7039966E2,1.0856812E3,9.8551404E2,2.4096291E4,1.6500755E2,1.8439241E3,8.719368E4,9.226957E2,2.5839973E4,2.575588E3,7.634772E1,3.8459797E1,1.2493439E0,2.0506677E2,3.653329E2,5.38173E2,5.4750824E2,8.767358E2,1.08778275E2,3.4129555E1,1.30878E2,2.6916312E2,1.5747609E3,7.23718E4,1.4821883E4,1.9279609E3,6.4762683E2,7.284817E1,3.4995522E0,1.8213187E2,2.2934912E1,5.2286095E1,3.1304678E2,1.8936359E2,3.488094E2,2.4173021E2,3.05778E2,3.2821292E2,5.485228E2,2.5494907E1,8.328336E1,2.7137163E1,6.9923916E0,6.983204E1,6.1045967E1,2.4246132E1,2.4491699E2,1.1624678E3,4.1229318E2,5.0224287E3,9.799454E3],"tree_param":{"num_deleted":"0","num_feature":"4","num_nodes":"71","size_leaf_vector":"0"}},{"base_weights":[3.462694E-2,-1.4704388E0,1.1705275E0,-1.4925967E0,-1.3743162E0,1.4739218E0,8.418682E-1,-1.4926289E-1,9.5466726E-2,-1.4444687E0,-7.3906535E-1,1.4927076E-1,4.2628235E-1,-1.4795374E0,1.4745396E0,-1.2728909E0,-1.450021E-1,-9.527151E-1,2.136557E-1,4.547971E-2,8.600382E-1,-1.4926653E-1,2.7252388E-1,1.0687345E0,1.4831921E0,-1.3037881E-1,-4.7976244E-2,-9.7549045E-1,-1.092137E-1,8.832761E-1,1.5979151E-1,-7.108295E-1,7.2341156E-1,1.0032121E0,-3.166194E-1,-8.785721E-2,3.9823237E-1,3.755054E-1,1.187902E0,1.4927088E-1,1.4369104E0,-9.037522E-2,-1.4709017E-1,1.18461564E-1,-2.0505361E-2,1.1008089E-1,7.511582E-2,7.642746E-3,5.37274E-2,-1.1720153E-3,-9.428173E-2,9.511357E-2,2.1743341E-3,1.4272718E-1,7.55018E-2,-7.93783E-2,3.2568105E-2,8.68383E-2,-2.8978426E-2,4.3179747E-2,-2.7962288E-2,1.15760766E-1,2.3563141E-2,1.13385454E-1,1.3410687E-1,1.4774291E-1,1.4159812E-1],"categories":[],"categories_nodes":[],"categories_segments":[],"categories_sizes":[],"default_left":[0,0,0,0,0,0,0,0,0,0,0,0,0,0,0,0,0,0,0,0,0,0,0,0,0,0,0,0,0,0,0,0,0,0,0,0,0,0,0,0,0,0,0,0,0,0,0,0,0,0,0,0,0,0,0,0,0,0,0,0,0,0,0,0,0,0,0],"id":4,"left_children":[1,3,5,7,9,11,13,-1,-1,15,17,-1,19,21,23,25,-1,27,29,31,33,-1,35,37,39,-1,-1,41,43,45,47,49,51,53,55,57,59,61,63,-1,65,-1,-1,-1,-1,-1,-1,-1,-1,-1,-1,-1,-1,-1,-1,-1,-1,-1,-1,-1,-1,-1,-1,-1,-1,-1,-1],"loss_changes":[6.7453544E5,3.5940625E2,2.2419781E4,1.228125E1,1.4162344E3,2.3004062E3,1.5852575E5,0E0,0E0,2.54375E1,6.4441736E2,0E0,3.40388E2,5.321133E2,2.9621875E2,2.1573853E1,0E0,4.9561035E1,2.0798435E1,5.637691E2,1.6262756E2,0E0,7.8618774E0,1.4612988E2,3.44375E1,0E0,0E0,8.813428E1,8.811106E0,4.0898132E-1,1.6906208E1,8.428659E1,9.262155E1,8.935028E1,3.2523327E1,9.037086E0,3.0391464E0,2.8359268E1,1.10095215E1,0E0,9.943359E0,0E0,0E0,0E0,0E0,0E0,0E0,0E0,0E0,0E0,0E0,0E0,0E0,0E0,0E0,0E0,0E0,0E0,0E0,0E0,0E0,0E0,0E0,0E0,0E0,0E0,0E0],"parents":[2147483647,0,0,1,1,2,2,3,3,4,4,5,5,6,6,9,9,10,10,12,12,13,13,14,14,15,15,17,17,18,18,19,19,20,20,22,22,23,23,24,24,27,27,28,28,29,29,30,30,31,31,32,32,33,33,34,34,35,35,36,36,37,37,38,38,40,40],"right_children":[2,4,6,8,10,12,14,-1,-1,16,18,-1,20,22,24,26,-1,28,30,32,34,-1,36,38,40,-1,-1,42,44,46,48,50,52,54,56,58,60,62,64,-1,66,-1,-1,-1,-1,-1,-1,-1,-1,-1,-1,-1,-1,-1,-1,-1,-1,-1,-1,-1,-1,-1,-1,-1,-1,-1,-1],"split_conditions":[1.05E2,1.38716455E14,2.05E2,1E0,1E0,1.38716455E14,2.21E2,-1.4926289E-1,9.5466726E-2,1.387168E14,1E0,1.4927076E-1,1.7E2,1.38716455E14,2.55E2,1E0,-1.450021E-1,8.6E1,1.387168E14,1E0,1.92E2,-1.4926653E-1,1E0,1E0,1.38716455E14,-1.3037881E-1,-4.7976244E-2,8.5E1,8.7E1,4E0,8.4E1,1.28E2,1.28E2,1.71E2,1.99E2,2.08E2,2.2E2,2.24E2,2.53E2,1.4927088E-1,1E0,-9.037522E-2,-1.4709017E-1,1.18461564E-1,-2.0505361E-2,1.1008089E-1,7.511582E-2,7.642746E-3,5.37274E-2,-1.1720153E-3,-9.428173E-2,9.511357E-2,2.1743341E-3,1.4272718E-1,7.55018E-2,-7.93783E-2,3.2568105E-2,8.68383E-2,-2.8978426E-2,4.3179747E-2,-2.7962288E-2,1.15760766E-1,2.3563141E-2,1.13385454E-1,1.3410687E-1,1.4774291E-1,1.4159812E-1],"split_indices":[3,0,3,2,3,0,3,0,0,0,2,0,3,0,3,2,0,3,0,2,3,0,2,2,0,0,0,3,3,3,3,3,3,3,3,3,3,3,3,0,2,0,0,0,0,0,0,0,0,0,0,0,0,0,0,0,0,0,0,0,0,0,0,0,0,0,0],"split_type":[0,0,0,0,0,0,0,0,0,0,0,0,0,0,0,0,0,0,0,0,0,0,0,0,0,0,0,0,0,0,0,0,0,0,0,0,0,0,0,0,0,0,0,0,0,0,0,0,0,0,0,0,0,0,0,0,0,0,0,0,0,0,0,0,0,0,0],"sum_hessian":[3.945543E5,1.6970081E5,2.248535E5,1.3789831E5,3.18025E4,1.1691894E5,1.0793456E5,1.3789689E5,1.420203E0,2.8638588E4,3.1639136E3,1.1485893E5,2.060004E3,2.3115938E4,8.481862E4,9.048982E2,2.773369E4,2.5843645E3,5.795493E2,1.0975492E3,9.624547E2,2.294417E4,1.7176773E2,1.7733085E3,8.304531E4,8.7034906E2,3.4549133E1,2.5162664E3,6.809808E1,4.200164E1,5.3754767E2,5.1876263E2,5.7878656E2,8.581801E2,1.042746E2,4.4499027E1,1.2726871E2,2.6072897E2,1.5125795E3,6.8855516E4,1.4189795E4,2.200453E3,3.1581332E2,3.9129727E0,6.418511E1,1.3100153E1,2.8901487E1,4.4129382E2,9.625382E1,1.2951424E2,3.8924838E2,4.367011E2,1.4208548E2,3.150836E2,5.4309656E2,5.9692974E1,4.4581623E1,7.1829886E0,3.731604E1,1.21609985E2,5.658723E0,3.84516E1,2.2227736E2,1.1242661E3,3.8831335E2,4.809341E3,9.380454E3],"tree_param":{"num_deleted":"0","num_feature":"4","num_nodes":"67","size_leaf_vector":"0"}},{"base_weights":[3.3206668E-2,-1.4012506E0,1.115956E0,-1.4242868E-1,-1.3021398E0,1.4056314E0,8.0292255E-1,-1.3732973E0,-6.8343E-1,1.4243846E-1,3.9195415E-1,-1.4106389E0,1.4053175E0,-1.1836251E0,-1.3794869E-1,-8.826433E-1,1.7362842E-1,4.4359382E-2,7.9078275E-1,-1.4243424E-1,2.7538434E-1,9.897339E-1,1.4143174E0,-1.2158537E-1,-3.6892667E-2,-9.0497696E-1,-1.2674424E-1,8.3773834E-1,1.2084633E-1,6.845904E-1,-6.478722E-1,1.355162E0,5.2495056E-1,-5.7693895E-2,3.5382015E-1,2.7855676E-1,1.1201123E0,1.4243846E-1,1.3655196E0,-8.383512E-2,-1.3935219E-1,2.7197955E-2,-4.6476863E-2,8.681509E-2,-5.76361E-4,4.806635E-3,4.676604E-2,1.3703219E-2,1.362453E-1,-1.3495836E-1,-1.0112331E-2,1.3710311E-1,2.669946E-2,1.109298E-2,8.88492E-2,2.8025458E-2,-1.1407023E-1,5.3443283E-2,1.7536812E-2,1.3227779E-1,1.7487373E-2,1.0664397E-1,1.2721363E-1,1.408928E-1,1.3433452E-1],"categories":[],"categories_nodes":[],"categories_segments":[],"categories_sizes":[],"default_left":[0,0,0,0,0,0,0,0,0,0,0,0,0,0,0,0,0,0,0,0,0,0,0,0,0,0,0,0,0,0,0,0,0,0,0,0,0,0,0,0,0,0,0,0,0,0,0,0,0,0,0,0,0,0,0,0,0,0,0,0,0,0,0,0,0],"id":5,"left_children":[1,3,5,-1,7,9,11,13,15,-1,17,19,21,23,-1,25,27,29,31,-1,33,35,37,-1,-1,39,41,43,45,47,49,51,53,55,57,59,61,-1,63,-1,-1,-1,-1,-1,-1,-1,-1,-1,-1,-1,-1,-1,-1,-1,-1,-1,-1,-1,-1,-1,-1,-1,-1,-1,-1],"loss_changes":[5.7953556E5,3.6459375E2,1.9280156E4,0E0,1.3322031E3,2.0987969E3,1.3627831E5,3.025E1,5.3376953E2,0E0,2.782466E2,5.0551953E2,2.990625E2,2.2269531E1,0E0,4.269934E1,2.058992E1,4.7626385E2,1.3952606E2,0E0,4.6472425E0,1.5789258E2,3.6703125E1,0E0,0E0,7.900635E1,1.0092348E1,1.1155624E0,1.3809371E1,2.0701892E2,1.979776E2,4.791321E0,9.578807E1,1.2989148E1,4.530924E0,2.8532078E1,1.0405762E1,0E0,1.1074219E1,0E0,0E0,0E0,0E0,0E0,0E0,0E0,0E0,0E0,0E0,0E0,0E0,0E0,0E0,0E0,0E0,0E0,0E0,0E0,0E0,0E0,0E0,0E0,0E0,0E0,0E0],"parents":[2147483647,0,0,1,1,2,2,4,4,5,5,6,6,7,7,8,8,10,10,11,11,12,12,13,13,15,15,16,16,17,17,18,18,20,20,21,21,22,22,25,25,26,26,27,27,28,28,29,29,30,30,31,31,32,32,33,33,34,34,35,35,36,36,38,38],"right_children":[2,4,6,-1,8,10,12,14,16,-1,18,20,22,24,-1,26,28,30,32,-1,34,36,38,-1,-1,40,42,44,46,48,50,52,54,56,58,60,62,-1,64,-1,-1,-1,-1,-1,-1,-1,-1,-1,-1,-1,-1,-1,-1,-1,-1,-1,-1,-1,-1,-1,-1,-1,-1,-1,-1],"split_conditions":[1.05E2,1.38716455E14,2.05E2,-1.4242868E-1,1E0,1.38716455E14,2.21E2,1.387168E14,1E0,1.4243846E-1,1.7E2,1.38716455E14,2.55E2,1E0,-1.3794869E-1,8.6E1,1.387168E14,1.28E2,1.71E2,-1.4243424E-1,2.09E2,1E0,1.38716455E14,-1.2158537E-1,-3.6892667E-2,8.5E1,9.6E1,6.4E1,8.6E1,1.27E2,1.29E2,1E0,1.9E2,2.08E2,2.16E2,2.22E2,2.53E2,1.4243846E-1,1E0,-8.383512E-2,-1.3935219E-1,2.7197955E-2,-4.6476863E-2,8.681509E-2,-5.76361E-4,4.806635E-3,4.676604E-2,1.3703219E-2,1.362453E-1,-1.3495836E-1,-1.0112331E-2,1.3710311E-1,2.669946E-2,1.109298E-2,8.88492E-2,2.8025458E-2,-1.1407023E-1,5.3443283E-2,1.7536812E-2,1.3227779E-1,1.7487373E-2,1.0664397E-1,1.2721363E-1,1.408928E-1,1.3433452E-1],"split_indices":[3,0,3,0,3,0,3,0,2,0,3,0,3,2,0,3,0,3,3,0,3,2,0,0,0,3,3,3,3,3,3,2,3,3,3,3,3,0,2,0,0,0,0,0,0,0,0,0,0,0,0,0,0,0,0,0,0,0,0,0,0,0,0,0,0],"split_type":[0,0,0,0,0,0,0,0,0,0,0,0,0,0,0,0,0,0,0,0,0,0,0,0,0,0,0,0,0,0,0,0,0,0,0,0,0,0,0,0,0,0,0,0,0,0,0,0,0,0,0,0,0,0,0,0,0,0,0,0,0,0,0,0,0],"sum_hessian":[3.7313178E5,1.6049848E5,2.126333E5,1.3021865E5,3.0279844E4,1.1043512E5,1.0219819E5,2.7155482E4,3.1243623E3,1.0842876E5,2.006359E3,2.1862152E4,8.033603E4,8.642369E2,2.6291244E4,2.535082E3,5.892803E2,1.0726306E3,9.3372845E2,2.168605E4,1.7610173E2,1.705223E3,7.863081E4,8.3087604E2,3.3360844E1,2.462139E3,7.2943184E1,4.2291565E1,5.469887E2,5.572512E2,5.153794E2,2.9766602E2,6.3606244E2,3.3615917E1,1.4248582E2,2.646685E2,1.4405546E3,6.5159918E4,1.347089E4,2.1690486E3,2.9309012E2,3.3556404E1,3.9386776E1,4.07916E1,1.4999654E0,4.5305283E2,9.393591E1,3.0891806E2,2.4833316E2,2.2506145E2,2.9031793E2,2.9313126E2,4.534764E0,2.9799484E2,3.3806763E2,2.6185928E1,7.4299893E0,6.98228E1,7.266302E1,2.2843842E1,2.4182463E2,1.0705922E3,3.6996237E2,4.533542E3,8.937348E3],"tree_param":{"num_deleted":"0","num_feature":"4","num_nodes":"65","size_leaf_vector":"0"}},{"base_weights":[3.14406E-2,-1.3437885E0,1.0701311E0,-1.3679294E-1,-1.2403859E0,1.3487021E0,7.689024E-1,-1.3142792E0,-6.191341E-1,1.3680415E-1,3.4514192E-1,-1.3538431E0,1.3479508E0,-1.1313822E0,-1.3203134E-1,-8.1292826E-1,2.0115721E-1,1.6846433E-2,7.2247803E-1,-1.3679738E-1,3.0094E-1,9.244002E-1,1.3573542E0,-1.1569667E-1,-5.0170746E-2,-8.348253E-1,-3.0518979E-2,8.6460716E-1,1.5289696E-1,-6.4657885E-1,6.238556E-1,8.6577564E-1,-3.523574E-1,3.419313E-1,-5.340715E-2,2.6784325E-1,1.0482179E0,1.3680403E-1,1.305881E0,-7.6878175E-2,-1.32965E-1,1.3008083E-1,-1.2966724E-2,7.310417E-2,1.06324665E-1,9.018229E-3,6.112339E-2,-8.498385E-3,-8.3711244E-2,-2.324154E-2,7.9551525E-2,1.2847808E-1,6.39548E-2,-1.3759464E-1,-4.520108E-4,7.786985E-3,4.4525173E-2,5.855372E-2,-4.541733E-3,9.892079E-2,1.21717945E-1,1.35087E-1,1.2830652E-1],"categories":[],"categories_nodes":[],"categories_segments":[],"categories_sizes":[],"default_left":[0,0,0,0,0,0,0,0,0,0,0,0,0,0,0,0,0,0,0,0,0,0,0,0,0,0,0,0,0,0,0,0,0,0,0,0,0,0,0,0,0,0,0,0,0,0,0,0,0,0,0,0,0,0,0,0,0,0,0,0,0,0,0],"id":6,"left_children":[1,3,5,-1,7,9,11,13,15,-1,17,19,21,23,-1,25,27,29,31,-1,33,35,37,-1,-1,39,41,43,45,47,49,51,53,55,-1,57,59,-1,61,-1,-1,-1,-1,-1,-1,-1,-1,-1,-1,-1,-1,-1,-1,-1,-1,-1,-1,-1,-1,-1,-1,-1,-1],"loss_changes":[5.018409E5,3.7565625E2,1.679436E4,0E0,1.3132031E3,2.0177031E3,1.1820748E5,2.6738281E1,4.8415308E2,0E0,2.4369589E2,4.823672E2,2.9967188E2,1.2693726E1,0E0,4.2170776E1,1.8522533E1,4.244726E2,1.4127719E2,0E0,6.1839485E0,1.3337842E2,3.8875E1,0E0,0E0,7.7274536E1,9.156616E0,2.652073E-1,1.559149E1,5.3819183E1,8.108899E1,7.5759094E1,3.858209E1,4.5417137E0,0E0,2.6122265E1,1.2584473E1,0E0,1.1332031E1,0E0,0E0,0E0,0E0,0E0,0E0,0E0,0E0,0E0,0E0,0E0,0E0,0E0,0E0,0E0,0E0,0E0,0E0,0E0,0E0,0E0,0E0,0E0,0E0],"parents":[2147483647,0,0,1,1,2,2,4,4,5,5,6,6,7,7,8,8,10,10,11,11,12,12,13,13,15,15,16,16,17,17,18,18,20,20,21,21,22,22,25,25,26,26,27,27,28,28,29,29,30,30,31,31,32,32,33,33,35,35,36,36,38,38],"right_children":[2,4,6,-1,8,10,12,14,16,-1,18,20,22,24,-1,26,28,30,32,-1,34,36,38,-1,-1,40,42,44,46,48,50,52,54,56,-1,58,60,-1,62,-1,-1,-1,-1,-1,-1,-1,-1,-1,-1,-1,-1,-1,-1,-1,-1,-1,-1,-1,-1,-1,-1,-1,-1],"split_conditions":[1.05E2,1.38716455E14,2.05E2,-1.3679294E-1,1E0,1.38716455E14,2.21E2,1.387168E14,1E0,1.3680415E-1,1.7E2,1.387168E14,2.55E2,1E0,-1.3203134E-1,8.6E1,1.387168E14,1E0,1.92E2,-1.3679738E-1,2.2E2,1E0,1.38716455E14,-1.1569667E-1,-5.0170746E-2,8.5E1,8.7E1,3.1E1,9.1E1,1.28E2,1.18E2,1.71E2,1.93E2,2.12E2,-5.340715E-2,2.4E2,2.53E2,1.3680403E-1,1E0,-7.6878175E-2,-1.32965E-1,1.3008083E-1,-1.2966724E-2,7.310417E-2,1.06324665E-1,9.018229E-3,6.112339E-2,-8.498385E-3,-8.3711244E-2,-2.324154E-2,7.9551525E-2,1.2847808E-1,6.39548E-2,-1.3759464E-1,-4.520108E-4,7.786985E-3,4.4525173E-2,5.855372E-2,-4.541733E-3,9.892079E-2,1.21717945E-1,1.35087E-1,1.2830652E-1],"split_indices":[3,0,3,0,3,0,3,0,2,0,3,0,3,2,0,3,0,2,3,0,3,2,0,0,0,3,3,3,3,3,3,3,3,3,0,3,3,0,2,0,0,0,0,0,0,0,0,0,0,0,0,0,0,0,0,0,0,0,0,0,0,0,0],"split_type":[0,0,0,0,0,0,0,0,0,0,0,0,0,0,0,0,0,0,0,0,0,0,0,0,0,0,0,0,0,0,0,0,0,0,0,0,0,0,0,0,0,0,0,0,0,0,0,0,0,0,0,0,0,0,0,0,0,0,0,0,0,0,0],"sum_hessian":[3.5131956E5,1.511699E5,2.0014967E5,1.225471E5,2.8622807E4,1.03983805E5,9.616586E4,2.5579229E4,3.043578E3,1.0201748E5,1.9663275E3,2.0609979E4,7.555588E4,8.229727E2,2.4756256E4,2.4619502E3,5.816277E2,1.0520511E3,9.1427637E2,2.0435645E4,1.7433292E2,1.6431597E3,7.391272E4,7.900352E2,3.2937477E1,2.3948591E3,6.709111E1,3.8292496E1,5.433352E2,5.0263525E2,5.4941595E2,8.0689514E2,1.07381195E2,1.6673813E2,7.594786E0,2.612127E2,1.381947E3,6.1184766E4,1.2727958E4,2.1151116E3,2.7974753E2,3.810136E0,6.328097E1,2.5695232E1,1.2597261E1,4.7899115E2,6.434403E1,1.2769678E2,3.7493848E2,9.169082E1,4.5772513E2,2.8126816E2,5.25627E2,2.6485617E1,8.089558E1,4.7385685E1,1.1935245E2,1.2925713E2,1.319556E2,1.0293134E3,3.526336E2,4.2632837E3,8.464675E3],"tree_param":{"num_deleted":"0","num_feature":"4","num_nodes":"63","size_leaf_vector":"0"}},{"base_weights":[3.1009162E-2,-1.2952992E0,1.0325562E0,-1.3208625E-1,-1.1870856E0,1.3017571E0,7.4144834E-1,-1.2630789E0,-5.8102363E-1,1.320982E-1,3.3061764E-1,-1.3074976E0,1.2997926E0,-1.0510064E0,-1.2701267E-1,-7.6501065E-1,1.6115679E-1,2.381056E-2,6.861041E-1,-1.3209382E-1,2.2518186E-1,8.734825E-1,1.3095536E0,-1.088255E-1,-2.0030584E-2,-6.8712354E-1,-9.7925925E-1,-2.4105549E-1,2.1342464E-1,-6.1308575E-1,6.0467553E-1,1.2513582E0,4.3850553E-1,-1.1312097E-1,3.6411735E-1,2.9959807E-1,9.809771E-1,1.3207494E-1,1.2533922E0,-8.046757E-2,8.09382E-2,-1.1023704E-1,-1.3533512E-2,2.7146548E-2,-1.4472911E-1,1.2316088E-1,1.4730341E-2,-7.931523E-3,-7.867727E-2,8.142968E-2,4.601209E-3,1.2651198E-1,3.8340308E-2,4.8917127E-3,7.8597456E-2,1.5327128E-2,-3.687881E-2,4.0901132E-2,-2.0542817E-2,1.0365825E-1,1.7670669E-2,9.199282E-2,1.1608311E-1,1.303039E-1,1.2274226E-1],"categories":[],"categories_nodes":[],"categories_segments":[],"categories_sizes":[],"default_left":[0,0,0,0,0,0,0,0,0,0,0,0,0,0,0,0,0,0,0,0,0,0,0,0,0,0,0,0,0,0,0,0,0,0,0,0,0,0,0,0,0,0,0,0,0,0,0,0,0,0,0,0,0,0,0,0,0,0,0,0,0,0,0,0,0],"id":7,"left_children":[1,3,5,-1,7,9,11,13,15,-1,17,19,21,23,-1,25,27,29,31,-1,33,35,37,-1,-1,39,41,43,45,47,49,51,53,55,57,59,61,-1,63,-1,-1,-1,-1,-1,-1,-1,-1,-1,-1,-1,-1,-1,-1,-1,-1,-1,-1,-1,-1,-1,-1,-1,-1,-1,-1],"loss_changes":[4.369721E5,3.8996875E2,1.4686844E4,0E0,1.2453203E3,1.8175781E3,1.0302118E5,3.4597656E1,4.119981E2,0E0,2.0628958E2,3.975586E2,2.9332812E2,2.4466675E1,0E0,3.9664062E1,1.2665498E1,3.7636624E2,1.2208566E2,0E0,7.960926E0,9.760925E1,4.1835938E1,0E0,0E0,3.1310248E2,6.656439E1,4.3343914E1,3.5603973E1,4.4927795E1,6.2270264E1,2.6965027E0,8.26548E1,3.4494104E0,3.1441507E0,2.2623072E1,1.360376E1,0E0,1.3251953E1,0E0,0E0,0E0,0E0,0E0,0E0,0E0,0E0,0E0,0E0,0E0,0E0,0E0,0E0,0E0,0E0,0E0,0E0,0E0,0E0,0E0,0E0,0E0,0E0,0E0,0E0],"parents":[2147483647,0,0,1,1,2,2,4,4,5,5,6,6,7,7,8,8,10,10,11,11,12,12,13,13,15,15,16,16,17,17,18,18,20,20,21,21,22,22,25,25,26,26,27,27,28,28,29,29,30,30,31,31,32,32,33,33,34,34,35,35,36,36,38,38],"right_children":[2,4,6,-1,8,10,12,14,16,-1,18,20,22,24,-1,26,28,30,32,-1,34,36,38,-1,-1,40,42,44,46,48,50,52,54,56,58,60,62,-1,64,-1,-1,-1,-1,-1,-1,-1,-1,-1,-1,-1,-1,-1,-1,-1,-1,-1,-1,-1,-1,-1,-1,-1,-1,-1,-1],"split_conditions":[1.08E2,1.38716455E14,2.05E2,-1.3208625E-1,1E0,1.38716455E14,2.21E2,1.387168E14,1E0,1.320982E-1,1.7E2,1.38716455E14,2.55E2,1E0,-1.2701267E-1,6.4E1,3E0,1E0,1.71E2,-1.3209382E-1,2.13E2,1E0,1.387168E14,-1.088255E-1,-2.0030584E-2,3.5E1,8.6E1,2E0,4E0,1.28E2,1.28E2,1E0,1.9E2,2.08E2,2.2E2,2.24E2,2.53E2,1.3207494E-1,1E0,-8.046757E-2,8.09382E-2,-1.1023704E-1,-1.3533512E-2,2.7146548E-2,-1.4472911E-1,1.2316088E-1,1.4730341E-2,-7.931523E-3,-7.867727E-2,8.142968E-2,4.601209E-3,1.2651198E-1,3.8340308E-2,4.8917127E-3,7.8597456E-2,1.5327128E-2,-3.687881E-2,4.0901132E-2,-2.0542817E-2,1.0365825E-1,1.7670669E-2,9.199282E-2,1.1608311E-1,1.303039E-1,1.2274226E-1],"split_indices":[3,0,3,0,3,0,3,0,2,0,3,0,3,2,0,3,3,2,3,0,3,2,0,0,0,3,3,3,3,3,3,2,3,3,3,3,3,0,2,0,0,0,0,0,0,0,0,0,0,0,0,0,0,0,0,0,0,0,0,0,0,0,0,0,0],"split_type":[0,0,0,0,0,0,0,0,0,0,0,0,0,0,0,0,0,0,0,0,0,0,0,0,0,0,0,0,0,0,0,0,0,0,0,0,0,0,0,0,0,0,0,0,0,0,0,0,0,0,0,0,0,0,0,0,0,0,0,0,0,0,0,0,0],"sum_hessian":[3.2895403E5,1.4153055E5,1.874235E5,1.1447665E5,2.7053893E4,9.7373875E4,9.0049625E4,2.4038633E4,3.0152588E3,9.54833E4,1.8905737E3,1.9283602E4,7.076602E4,7.7800616E2,2.3260627E4,2.4162405E3,5.990183E2,1.0153393E3,8.7523444E2,1.9116105E4,1.674969E2,1.586033E3,6.917999E4,7.451022E2,3.2904E1,1.7751251E3,6.411153E2,6.84752E1,5.305431E2,4.842844E2,5.310549E2,2.653655E2,6.098689E2,4.8816444E1,1.1868046E2,2.5081058E2,1.3352224E3,5.7662492E4,1.1517501E4,1.6462711E3,1.2885403E2,5.59229E2,8.188628E1,4.8600246E1,1.9874954E1,3.1277796E1,4.992653E2,1.19253624E2,3.650308E2,3.8582742E2,1.452275E2,2.6077335E2,4.59218E0,2.880467E2,3.2182224E2,2.410292E1,2.4713524E1,1.10270355E2,8.410102E0,3.4782665E1,2.1602791E2,1.0014194E3,3.33803E2,3.9386685E3,7.578832E3],"tree_param":{"num_deleted":"0","num_feature":"4","num_nodes":"65","size_leaf_vector":"0"}},{"base_weights":[2.9842786E-2,-1.2539943E0,1.000732E0,-1.2811585E-1,-1.1403905E0,1.2611741E0,7.1938443E-1,-1.2210774E0,-5.230879E-1,1.2812598E-1,3.0104148E-1,-1.267084E0,1.258136E0,-1.0233561E0,-1.22787274E-1,-7.013984E-1,1.5950558E-1,1.850848E-2,6.237599E-1,-1.2812133E-1,1.7928566E-1,8.09049E-1,1.2687694E0,-1.0542388E-1,-3.000004E-2,-6.220839E-1,-9.236187E-1,8.0544424E-1,1.1714323E-1,-5.655165E-1,5.5385196E-1,7.624875E-1,-3.6127526E-1,-7.8523725E-2,2.7331114E-1,2.1832511E-1,9.277021E-1,1.2812626E-1,1.2091396E0,-7.319475E-2,7.179752E-2,-1.043157E-1,-1.067704E-2,4.0545117E-2,8.813143E-2,-7.1053333E-3,2.2407608E-2,-5.786292E-3,-7.369053E-2,-2.7038082E-2,6.915817E-2,5.7496913E-2,1.2731887E-1,-1.3868164E-1,-2.9153072E-3,2.3856368E-2,-6.518135E-2,1.1305117E-2,3.2818817E-2,1.162194E-1,1.3829074E-2,8.68911E-2,1.10368036E-1,1.2622595E-1,1.1823354E-1],"categories":[],"categories_nodes":[],"categories_segments":[],"categories_sizes":[],"default_left":[0,0,0,0,0,0,0,0,0,0,0,0,0,0,0,0,0,0,0,0,0,0,0,0,0,0,0,0,0,0,0,0,0,0,0,0,0,0,0,0,0,0,0,0,0,0,0,0,0,0,0,0,0,0,0,0,0,0,0,0,0,0,0,0,0],"id":8,"left_children":[1,3,5,-1,7,9,11,13,15,-1,17,19,21,23,-1,25,27,29,31,-1,33,35,37,-1,-1,39,41,43,45,47,49,51,53,55,57,59,61,-1,63,-1,-1,-1,-1,-1,-1,-1,-1,-1,-1,-1,-1,-1,-1,-1,-1,-1,-1,-1,-1,-1,-1,-1,-1,-1,-1],"loss_changes":[3.8253716E5,4.0635938E2,1.2803641E4,0E0,1.2699883E3,1.7495938E3,8.990436E4,2.9054688E1,3.5925458E2,0E0,1.6964886E2,3.665039E2,3.1453906E2,1.6563293E1,0E0,4.0664062E1,1.6651218E1,3.108337E2,1.1896704E2,0E0,4.2458124E0,1.0712579E2,4.6539062E1,0E0,0E0,2.5483643E2,5.9781555E1,7.805233E-1,1.1596985E1,4.1327606E1,5.9069366E1,7.220978E1,3.671183E1,8.762655E0,1.0878887E0,1.9286274E1,1.2230347E1,0E0,1.4454102E1,0E0,0E0,0E0,0E0,0E0,0E0,0E0,0E0,0E0,0E0,0E0,0E0,0E0,0E0,0E0,0E0,0E0,0E0,0E0,0E0,0E0,0E0,0E0,0E0,0E0,0E0],"parents":[2147483647,0,0,1,1,2,2,4,4,5,5,6,6,7,7,8,8,10,10,11,11,12,12,13,13,15,15,16,16,17,17,18,18,20,20,21,21,22,22,25,25,26,26,27,27,28,28,29,29,30,30,31,31,32,32,33,33,34,34,35,35,36,36,38,38],"right_children":[2,4,6,-1,8,10,12,14,16,-1,18,20,22,24,-1,26,28,30,32,-1,34,36,38,-1,-1,40,42,44,46,48,50,52,54,56,58,60,62,-1,64,-1,-1,-1,-1,-1,-1,-1,-1,-1,-1,-1,-1,-1,-1,-1,-1,-1,-1,-1,-1,-1,-1,-1,-1,-1,-1],"split_conditions":[1.08E2,1.38716455E14,2.05E2,-1.2811585E-1,1E0,1.38716455E14,2.21E2,1.387168E14,1E0,1.2812598E-1,1.7E2,1.38716455E14,2.55E2,1E0,-1.22787274E-1,6.4E1,1.387168E14,1E0,1.92E2,-1.2812133E-1,1E0,1E0,1.38716455E14,-1.0542388E-1,-3.000004E-2,3.5E1,8.6E1,3E0,2.1E1,1.28E2,1.18E2,1.91E2,1.93E2,2.16E2,2.12E2,2.22E2,2.53E2,1.2812626E-1,1E0,-7.319475E-2,7.179752E-2,-1.043157E-1,-1.067704E-2,4.0545117E-2,8.813143E-2,-7.1053333E-3,2.2407608E-2,-5.786292E-3,-7.369053E-2,-2.7038082E-2,6.915817E-2,5.7496913E-2,1.2731887E-1,-1.3868164E-1,-2.9153072E-3,2.3856368E-2,-6.518135E-2,1.1305117E-2,3.2818817E-2,1.162194E-1,1.3829074E-2,8.68911E-2,1.10368036E-1,1.2622595E-1,1.1823354E-1],"split_indices":[3,0,3,0,3,0,3,0,2,0,3,0,3,2,0,3,0,2,3,0,2,2,0,0,0,3,3,3,3,3,3,3,3,3,3,3,3,0,2,0,0,0,0,0,0,0,0,0,0,0,0,0,0,0,0,0,0,0,0,0,0,0,0,0,0],"split_type":[0,0,0,0,0,0,0,0,0,0,0,0,0,0,0,0,0,0,0,0,0,0,0,0,0,0,0,0,0,0,0,0,0,0,0,0,0,0,0,0,0,0,0,0,0,0,0,0,0,0,0,0,0,0,0,0,0,0,0,0,0,0,0,0,0],"sum_hessian":[3.06896E5,1.3214983E5,1.7474616E5,1.0664048E5,2.5509352E4,9.074262E4,8.400354E4,2.2559629E4,2.9497212E3,8.8882875E4,1.8597477E3,1.792173E4,6.6081805E4,7.5460443E2,2.1805025E4,2.3387532E3,6.109681E2,9.921763E2,8.675714E2,1.7748463E4,1.7326717E2,1.5302651E3,6.4551543E4,7.23268E2,3.1336407E1,1.7263776E3,6.123757E2,3.649415E1,5.7447394E2,4.7448627E2,5.1769E2,7.606685E2,1.0690291E2,4.6348534E1,1.26918625E2,2.5643304E2,1.273832E3,5.335294E4,1.1198601E4,1.5959858E3,1.303917E2,5.339586E2,7.841703E1,6.829979E0,2.9664167E1,2.08268E2,3.6620593E2,1.2009696E2,3.543893E2,7.398275E1,4.4370724E2,5.5793335E2,2.0273514E2,2.537458E1,8.152833E1,3.0218504E1,1.6130028E1,3.315489E1,9.376374E1,1.8987434E1,2.3744562E2,9.592886E2,3.145435E2,3.7402278E3,7.4583726E3],"tree_param":{"num_deleted":"0","num_feature":"4","num_nodes":"65","size_leaf_vector":"0"}},{"base_weights":[2.9230073E-2,-1.2183179E0,9.727786E-1,-1.2473038E0,-1.0981696E0,1.2268009E0,6.989658E-1,-1.2473446E-1,1.1005681E-1,-1.1816821E0,-4.856838E-1,1.2474338E-1,2.8756878E-1,-1.2332165E0,1.2230169E0,-9.6364135E-1,-1.1892696E-1,-6.5309125E-1,1.4206544E-1,3.8091134E-2,5.731126E-1,-1.2473976E-1,2.2141846E-1,7.732784E-1,1.2341286E0,-9.9484935E-2,-2.725645E-2,-5.806163E-1,-8.667925E-1,1.0390791E-2,2.873011E-1,5.519132E-1,-4.7441128E-1,1.1878332E0,3.2126126E-1,-4.4831906E-2,3.4480777E-1,2.337709E-1,8.8692147E-1,1.2471657E-1,1.1697431E0,-6.2279608E-2,2.191108E-1,-9.759653E-2,-1.4574182E-2,1.3538703E-2,-1.0912638E-1,6.497742E-2,8.5885385E-3,4.0201815E-3,1.1930527E-1,-1.09571956E-1,5.311179E-3,1.2071516E-1,7.1565965E-3,-5.8757126E-2,4.7528904E-2,2.176804E-2,-3.0374203E-2,5.326974E-2,1.9338453E-2,4.70534E-2,5.7876663E-4,8.24412E-2,1.0767402E-1,1.22662306E-1,1.14067316E-1],"categories":[],"categories_nodes":[],"categories_segments":[],"categories_sizes":[],"default_left":[0,0,0,0,0,0,0,0,0,0,0,0,0,0,0,0,0,0,0,0,0,0,0,0,0,0,0,0,0,0,0,0,0,0,0,0,0,0,0,0,0,0,0,0,0,0,0,0,0,0,0,0,0,0,0,0,0,0,0,0,0,0,0,0,0,0,0],"id":9,"left_children":[1,3,5,7,9,11,13,-1,-1,15,17,-1,19,21,23,25,-1,27,29,31,33,-1,35,37,39,-1,-1,41,43,45,47,49,51,53,55,57,59,61,63,-1,65,-1,-1,-1,-1,-1,-1,-1,-1,-1,-1,-1,-1,-1,-1,-1,-1,-1,-1,-1,-1,-1,-1,-1,-1,-1,-1],"loss_changes":[3.3588928E5,4.2659375E2,1.1299609E4,1.0828125E1,1.2214727E3,1.6328984E3,7.9174766E4,0E0,0E0,3.363672E1,3.0153357E2,0E0,1.2912523E2,3.4441602E2,3.064375E2,1.509021E1,0E0,3.4572205E1,1.1561565E1,2.5533865E2,1.3048413E2,0E0,5.334892E0,9.088611E1,4.8921875E1,0E0,0E0,1.9943256E2,4.484659E1,4.3965313E1,2.093499E1,1.5879422E2,1.5917656E2,5.2032776E0,8.4409424E1,3.6113288E0,3.04815E0,1.4024399E1,1.3669922E1,0E0,1.5339844E1,0E0,0E0,0E0,0E0,0E0,0E0,0E0,0E0,0E0,0E0,0E0,0E0,0E0,0E0,0E0,0E0,0E0,0E0,0E0,0E0,0E0,0E0,0E0,0E0,0E0,0E0],"parents":[2147483647,0,0,1,1,2,2,3,3,4,4,5,5,6,6,9,9,10,10,12,12,13,13,14,14,15,15,17,17,18,18,19,19,20,20,22,22,23,23,24,24,27,27,28,28,29,29,30,30,31,31,32,32,33,33,34,34,35,35,36,36,37,37,38,38,40,40],"right_children":[2,4,6,8,10,12,14,-1,-1,16,18,-1,20,22,24,26,-1,28,30,32,34,-1,36,38,40,-1,-1,42,44,46,48,50,52,54,56,58,60,62,64,-1,66,-1,-1,-1,-1,-1,-1,-1,-1,-1,-1,-1,-1,-1,-1,-1,-1,-1,-1,-1,-1,-1,-1,-1,-1,-1,-1],"split_conditions":[1.08E2,1.38716455E14,2.05E2,1E0,1E0,1.38716455E14,2.2E2,-1.2473446E-1,1.1005681E-1,1.387168E14,1E0,1.2474338E-1,1.7E2,1.387168E14,2.55E2,1E0,-1.1892696E-1,6.4E1,4.1E1,1.28E2,1.71E2,-1.2473976E-1,2.13E2,1E0,1.387168E14,-9.9484935E-2,-2.725645E-2,6.3E1,8.6E1,3.2E1,6.4E1,1.27E2,1.31E2,1E0,1.8E2,2.08E2,2.16E2,2.4E2,2.53E2,1.2471657E-1,1E0,-6.2279608E-2,2.191108E-1,-9.759653E-2,-1.4574182E-2,1.3538703E-2,-1.0912638E-1,6.497742E-2,8.5885385E-3,4.0201815E-3,1.1930527E-1,-1.09571956E-1,5.311179E-3,1.2071516E-1,7.1565965E-3,-5.8757126E-2,4.7528904E-2,2.176804E-2,-3.0374203E-2,5.326974E-2,1.9338453E-2,4.70534E-2,5.7876663E-4,8.24412E-2,1.0767402E-1,1.22662306E-1,1.14067316E-1],"split_indices":[3,0,3,2,3,0,3,0,0,0,2,0,3,0,3,2,0,3,3,3,3,0,3,2,0,0,0,3,3,3,3,3,3,2,3,3,3,3,3,0,2,0,0,0,0,0,0,0,0,0,0,0,0,0,0,0,0,0,0,0,0,0,0,0,0,0,0],"split_type":[0,0,0,0,0,0,0,0,0,0,0,0,0,0,0,0,0,0,0,0,0,0,0,0,0,0,0,0,0,0,0,0,0,0,0,0,0,0,0,0,0,0,0,0,0,0,0,0,0,0,0,0,0,0,0,0,0,0,0,0,0,0,0,0,0,0,0],"sum_hessian":[2.853459E5,1.2287795E5,1.6246797E5,9.898764E4,2.389031E4,8.4277945E4,7.8190016E4,9.898639E4,1.2492905E0,2.1022902E4,2.8674092E3,8.2466016E4,1.8119263E3,1.6681986E4,6.150803E4,7.1126227E2,2.0311639E4,2.2636904E3,6.037187E2,9.676397E2,8.4428656E2,1.6521066E4,1.6091891E2,1.4847539E3,6.0023277E4,6.8011E2,3.1152283E1,1.6931798E3,5.705106E2,3.172042E2,2.865145E2,4.8315933E2,4.8448035E2,2.4429445E2,5.999921E2,5.1160686E1,1.0975823E2,2.5886728E2,1.2258866E3,4.9900773E4,1.0122502E4,1.6685631E3,2.4616713E1,4.951825E2,7.532814E1,2.856687E2,3.1535517E1,1.01545135E2,1.8496935E2,2.692923E2,2.1386703E2,2.2197021E2,2.6251013E2,2.4005852E2,4.2359257E0,8.6541855E1,5.1345026E2,2.5482697E1,2.567799E1,4.7857533E1,6.1900703E1,1.2646652E2,1.3240077E2,9.262162E2,2.9967044E2,3.4096873E3,6.7128145E3],"tree_param":{"num_deleted":"0","num_feature":"4","num_nodes":"67","size_leaf_vector":"0"}},{"base_weights":[2.8617281E-2,-1.1871608E0,9.483402E-1,-1.2182602E0,-1.0595012E0,1.1962262E0,6.8074197E-1,-1.2183038E-1,1.1239313E-1,-1.1453279E0,-4.5096543E-1,1.21841304E-1,2.5578952E-1,-1.2024208E0,1.1916516E0,-9.076408E-1,-1.1538029E-1,-6.1125696E-1,1.4819112E-1,1.9010698E-2,5.343007E-1,-1.2183597E-1,2.0450294E-1,7.228806E-1,1.2036954E0,-9.445139E-2,-2.0957856E-2,-5.386177E-1,-8.2894665E-1,-8.1875786E-2,2.4416064E-1,-4.9645275E-1,4.7302464E-1,1.1506094E0,2.9729035E-1,4.3579936E-2,2.6101315E-1,2.0539773E-1,8.337237E-1,1.2184178E-1,1.1342705E0,-6.464713E-2,6.888621E-2,-9.3153894E-2,-1.0289321E-2,1.3092997E-2,-1.6585797E-1,1.0346085E-1,1.6171029E-2,-6.616741E-2,4.06185E-4,6.674324E-2,-2.6137985E-3,1.1617749E-1,4.48617E-2,-6.589376E-2,4.3935034E-2,2.314271E-2,-3.393991E-2,4.0932773E-3,3.0146224E-2,1.1893314E-1,1.3291995E-2,7.783684E-2,1.0062116E-1,1.19544916E-1,1.1040389E-1],"categories":[],"categories_nodes":[],"categories_segments":[],"categories_sizes":[],"default_left":[0,0,0,0,0,0,0,0,0,0,0,0,0,0,0,0,0,0,0,0,0,0,0,0,0,0,0,0,0,0,0,0,0,0,0,0,0,0,0,0,0,0,0,0,0,0,0,0,0,0,0,0,0,0,0,0,0,0,0,0,0,0,0,0,0,0,0],"id":10,"left_children":[1,3,5,7,9,11,13,-1,-1,15,17,-1,19,21,23,25,-1,27,29,31,33,-1,35,37,39,-1,-1,41,43,45,47,49,51,53,55,57,59,61,63,-1,65,-1,-1,-1,-1,-1,-1,-1,-1,-1,-1,-1,-1,-1,-1,-1,-1,-1,-1,-1,-1,-1,-1,-1,-1,-1,-1],"loss_changes":[2.9574347E5,4.5095312E2,9.987516E3,1.0734375E1,1.1653008E3,1.6306328E3,6.967064E4,0E0,0E0,3.835742E1,2.6522687E2,0E0,1.1888022E2,3.4679492E2,3.2071094E2,1.7257812E1,0E0,3.3997192E1,1.2903016E1,2.2852173E2,1.20661575E2,0E0,1.5706534E0,8.1809875E1,5.5375E1,0E0,0E0,2.1704343E2,4.03602E1,5.8096104E1,2.6682985E1,3.78201E1,5.0397484E1,1.2795105E0,8.174693E1,3.4176514E0,1.1320515E0,1.791711E1,1.0453003E1,0E0,1.6675781E1,0E0,0E0,0E0,0E0,0E0,0E0,0E0,0E0,0E0,0E0,0E0,0E0,0E0,0E0,0E0,0E0,0E0,0E0,0E0,0E0,0E0,0E0,0E0,0E0,0E0,0E0],"parents":[2147483647,0,0,1,1,2,2,3,3,4,4,5,5,6,6,9,9,10,10,12,12,13,13,14,14,15,15,17,17,18,18,19,19,20,20,22,22,23,23,24,24,27,27,28,28,29,29,30,30,31,31,32,32,33,33,34,34,35,35,36,36,37,37,38,38,40,40],"right_children":[2,4,6,8,10,12,14,-1,-1,16,18,-1,20,22,24,26,-1,28,30,32,34,-1,36,38,40,-1,-1,42,44,46,48,50,52,54,56,58,60,62,64,-1,66,-1,-1,-1,-1,-1,-1,-1,-1,-1,-1,-1,-1,-1,-1,-1,-1,-1,-1,-1,-1,-1,-1,-1,-1,-1,-1],"split_conditions":[1.05E2,1.38716455E14,2.05E2,1E0,1E0,1.38716455E14,2.21E2,-1.2183038E-1,1.1239313E-1,1.387168E14,1E0,1.21841304E-1,1.7E2,1.38716455E14,2.55E2,1E0,-1.1538029E-1,6.4E1,1E1,1E0,1.71E2,-1.2183597E-1,1E0,1E0,1.38716455E14,-9.445139E-2,-2.0957856E-2,3.5E1,8.6E1,8E0,1.6E1,1.35E2,1.28E2,1E0,1.78E2,2.16E2,2.09E2,2.22E2,2.53E2,1.2184178E-1,1E0,-6.464713E-2,6.888621E-2,-9.3153894E-2,-1.0289321E-2,1.3092997E-2,-1.6585797E-1,1.0346085E-1,1.6171029E-2,-6.616741E-2,4.06185E-4,6.674324E-2,-2.6137985E-3,1.1617749E-1,4.48617E-2,-6.589376E-2,4.3935034E-2,2.314271E-2,-3.393991E-2,4.0932773E-3,3.0146224E-2,1.1893314E-1,1.3291995E-2,7.783684E-2,1.0062116E-1,1.19544916E-1,1.1040389E-1],"split_indices":[3,0,3,2,3,0,3,0,0,0,2,0,3,0,3,2,0,3,3,2,3,0,2,2,0,0,0,3,3,3,3,3,3,2,3,3,3,3,3,0,2,0,0,0,0,0,0,0,0,0,0,0,0,0,0,0,0,0,0,0,0,0,0,0,0,0,0],"split_type":[0,0,0,0,0,0,0,0,0,0,0,0,0,0,0,0,0,0,0,0,0,0,0,0,0,0,0,0,0,0,0,0,0,0,0,0,0,0,0,0,0,0,0,0,0,0,0,0,0,0,0,0,0,0,0,0,0,0,0,0,0,0,0,0,0,0,0],"sum_hessian":[2.6448466E5,1.1390879E5,1.5057588E5,9.1588336E4,2.232045E4,7.816516E4,7.241073E4,9.158711E4,1.2261715E0,1.9560756E4,2.759695E3,7.6363305E4,1.8018566E3,1.5452602E4,5.6958125E4,6.7716565E2,1.888359E4,2.1772092E3,5.8248584E2,9.7447003E2,8.273865E2,1.5279634E4,1.7296796E2,1.4282524E3,5.552987E4,6.428556E2,3.431005E1,1.6350842E3,5.421249E2,1.7149919E2,4.1098666E2,4.5630826E2,5.181618E2,2.2873691E2,5.986496E2,4.5414158E1,1.275538E2,2.5246173E2,1.1757908E3,4.5800715E4,9.729154E3,1.5034552E3,1.3162909E2,4.7475793E2,6.736694E1,1.5191269E2,1.9586506E1,3.7729305E1,3.7325735E2,3.428203E2,1.1348796E2,3.7267844E2,1.4548334E2,2.2451099E2,4.225916E0,7.696275E1,5.216868E2,3.0734787E1,1.467937E1,2.011602E1,1.0743778E2,1.6263557E1,2.3619817E2,8.9430133E2,2.814894E2,3.2049275E3,6.524227E3],"tree_param":{"num_deleted":"0","num_feature":"4","num_nodes":"67","size_leaf_vector":"0"}},{"base_weights":[2.8867094E-2,-1.1599544E0,9.279006E-1,-1.1931667E0,-1.0249714E0,1.1701307E0,6.664509E-1,-1.1932119E-1,1.06403805E-1,-1.1138343E0,-4.2712554E-1,1.19335584E-1,2.3739956E-1,-1.1775496E0,1.1647692E0,-8.8187355E-1,-1.12226166E-1,-5.7286793E-1,1.09092526E-1,1.54765565E-2,5.005367E-1,-1.1932983E-1,1.5805086E-1,6.7740977E-1,1.1776608E0,-9.1131546E-2,-2.912027E-2,-5.9485215E-1,4.669323E-2,7.008077E-1,6.793731E-2,4.6386126E-1,-4.5241222E-1,6.453397E-1,-4.3832734E-1,-1.41620245E-2,2.5866726E-1,1.7693524E-1,7.90984E-1,1.1933579E-1,1.1043274E0,-5.2909333E-2,-1.1725868E-1,1.7736914E-2,-7.2132885E-2,7.4688494E-2,-3.5946704E-2,-3.241469E-4,3.5567425E-2,2.2229252E-3,1.09975055E-1,-1.13835335E-1,-2.0242024E-3,4.410517E-2,1.1774864E-1,-8.743649E-2,1.7247248E-2,2.6944583E-2,-2.1478195E-2,8.403835E-2,1.675179E-2,1.0423409E-1,1.1223171E-2,7.273151E-2,9.9347934E-2,1.1711302E-1,1.0714177E-1],"categories":[],"categories_nodes":[],"categories_segments":[],"categories_sizes":[],"default_left":[0,0,0,0,0,0,0,0,0,0,0,0,0,0,0,0,0,0,0,0,0,0,0,0,0,0,0,0,0,0,0,0,0,0,0,0,0,0,0,0,0,0,0,0,0,0,0,0,0,0,0,0,0,0,0,0,0,0,0,0,0,0,0,0,0,0,0],"id":11,"left_children":[1,3,5,7,9,11,13,-1,-1,15,17,-1,19,21,23,25,-1,27,29,31,33,-1,35,37,39,-1,-1,41,43,45,47,49,51,53,55,57,59,61,63,-1,65,-1,-1,-1,-1,-1,-1,-1,-1,-1,-1,-1,-1,-1,-1,-1,-1,-1,-1,-1,-1,-1,-1,-1,-1,-1,-1],"loss_changes":[2.613644E5,4.7084375E2,8.8175625E3,9.8828125E0,1.1045469E3,1.5654219E3,6.1536992E4,0E0,0E0,3.4404297E1,2.1053674E2,0E0,1.0260662E2,2.998672E2,3.304453E2,1.0855438E1,0E0,2.8873413E1,1.3989223E1,2.0041425E2,1.0957619E2,0E0,2.8960147E0,7.7219666E1,5.7804688E1,0E0,0E0,7.708319E1,7.504474E0,2.0944786E0,1.1061457E1,1.3696259E2,1.3856253E2,7.524179E1,2.8919403E1,3.6143854E0,5.448683E0,1.4050532E1,1.357489E1,0E0,1.868164E1,0E0,0E0,0E0,0E0,0E0,0E0,0E0,0E0,0E0,0E0,0E0,0E0,0E0,0E0,0E0,0E0,0E0,0E0,0E0,0E0,0E0,0E0,0E0,0E0,0E0,0E0],"parents":[2147483647,0,0,1,1,2,2,3,3,4,4,5,5,6,6,9,9,10,10,12,12,13,13,14,14,15,15,17,17,18,18,19,19,20,20,22,22,23,23,24,24,27,27,28,28,29,29,30,30,31,31,32,32,33,33,34,34,35,35,36,36,37,37,38,38,40,40],"right_children":[2,4,6,8,10,12,14,-1,-1,16,18,-1,20,22,24,26,-1,28,30,32,34,-1,36,38,40,-1,-1,42,44,46,48,50,52,54,56,58,60,62,64,-1,66,-1,-1,-1,-1,-1,-1,-1,-1,-1,-1,-1,-1,-1,-1,-1,-1,-1,-1,-1,-1,-1,-1,-1,-1,-1,-1],"split_conditions":[1.05E2,1.38716455E14,2.05E2,1E0,1E0,1.38716455E14,2.21E2,-1.1932119E-1,1.06403805E-1,1.387168E14,1E0,1.19335584E-1,1.7E2,1.38716455E14,2.55E2,1E0,-1.12226166E-1,8.6E1,1.387168E14,1.28E2,1.92E2,-1.1932983E-1,2.14E2,1E0,1.38716455E14,-9.1131546E-2,-2.912027E-2,8.5E1,1.02E2,6.4E1,8.1E1,1.27E2,1.29E2,1.91E2,1E0,2.08E2,2.15E2,2.22E2,2.53E2,1.1933579E-1,1E0,-5.2909333E-2,-1.1725868E-1,1.7736914E-2,-7.2132885E-2,7.4688494E-2,-3.5946704E-2,-3.241469E-4,3.5567425E-2,2.2229252E-3,1.09975055E-1,-1.13835335E-1,-2.0242024E-3,4.410517E-2,1.1774864E-1,-8.743649E-2,1.7247248E-2,2.6944583E-2,-2.1478195E-2,8.403835E-2,1.675179E-2,1.0423409E-1,1.1223171E-2,7.273151E-2,9.9347934E-2,1.1711302E-1,1.0714177E-1],"split_indices":[3,0,3,2,3,0,3,0,0,0,2,0,3,0,3,2,0,3,0,3,3,0,3,2,0,0,0,3,3,3,3,3,3,3,2,3,3,3,3,0,2,0,0,0,0,0,0,0,0,0,0,0,0,0,0,0,0,0,0,0,0,0,0,0,0,0,0],"split_type":[0,0,0,0,0,0,0,0,0,0,0,0,0,0,0,0,0,0,0,0,0,0,0,0,0,0,0,0,0,0,0,0,0,0,0,0,0,0,0,0,0,0,0,0,0,0,0,0,0,0,0,0,0,0,0,0,0,0,0,0,0,0,0,0,0,0,0],"sum_hessian":[2.4454022E5,1.0529926E5,1.3924097E5,8.450033E4,2.0798932E4,7.227527E4,6.696569E4,8.449911E4,1.2221111E0,1.8106715E4,2.6922178E3,7.051906E4,1.7562102E3,1.4246371E4,5.2719316E4,6.384751E2,1.746824E4,2.1168076E3,5.7541003E2,9.532895E2,8.029207E2,1.4080448E4,1.6592319E2,1.3599819E3,5.1359332E4,6.076443E2,3.08308E1,2.0443083E3,7.249928E1,3.637628E1,5.3903375E2,4.8679514E2,4.6649435E2,6.959028E2,1.0701794E2,6.15075E1,1.0441569E2,2.5201486E2,1.107967E3,4.2291508E4,9.067827E3,1.83712E3,2.0718843E2,6.2614697E1,9.884584E0,3.514455E1,1.2317309E0,4.3292734E2,1.06106445E2,2.8788843E2,1.9890671E2,1.796769E2,2.8681747E2,5.0417987E2,1.9172292E2,6.2190147E1,4.482779E1,2.5340975E1,3.6166527E1,1.3031115E1,9.1384575E1,1.6480444E1,2.3553442E2,8.464246E2,2.6154245E2,2.9813887E3,6.0864385E3],"tree_param":{"num_deleted":"0","num_feature":"4","num_nodes":"67","size_leaf_vector":"0"}},{"base_weights":[2.7156772E-2,-1.1351653E0,9.083401E-1,-1.1714412E-1,-9.9043024E-1,1.1471089E0,6.515117E-1,-1.0858192E0,-3.8224223E-1,1.171602E-1,2.0378864E-1,-1.1543434E0,1.1394607E0,-8.3529073E-1,-1.0951129E-1,-5.163794E-1,9.235176E-2,-1.9246984E-2,3.97366E-1,-1.1715402E-1,1.4593478E-1,6.208393E-1,1.1538714E0,-8.679612E-2,-2.2229277E-2,-4.420517E-1,-7.441374E-1,5.1234734E-1,6.3571766E-2,-4.1093016E-1,4.6907616E-1,2.2386661E-1,9.600653E-1,-8.618113E-2,2.2848587E-1,1.11795165E-1,7.392485E-1,1.17160216E-1,1.0716808E0,-5.4659426E-2,6.309955E-2,-8.582059E-2,-1.152819E-2,5.509009E-2,-3.388318E-2,9.215801E-3,-3.193898E-2,1.19494334E-1,-4.729892E-2,1.0884073E-1,-3.407502E-2,6.0702085E-2,-1.337889E-2,1.1709859E-1,1.21620465E-2,5.664363E-2,-2.359411E-2,-7.5240918E-3,2.8986275E-2,7.459854E-2,2.3353898E-3,9.538823E-2,6.901302E-2,1.1438916E-1,1.0365061E-1],"categories":[],"categories_nodes":[],"categories_segments":[],"categories_sizes":[],"default_left":[0,0,0,0,0,0,0,0,0,0,0,0,0,0,0,0,0,0,0,0,0,0,0,0,0,0,0,0,0,0,0,0,0,0,0,0,0,0,0,0,0,0,0,0,0,0,0,0,0,0,0,0,0,0,0,0,0,0,0,0,0,0,0,0,0],"id":12,"left_children":[1,3,5,-1,7,9,11,13,15,-1,17,19,21,23,-1,25,27,29,31,-1,33,35,37,-1,-1,39,41,43,45,47,49,51,53,55,57,59,61,-1,63,-1,-1,-1,-1,-1,-1,-1,-1,-1,-1,-1,-1,-1,-1,-1,-1,-1,-1,-1,-1,-1,-1,-1,-1,-1,-1],"loss_changes":[2.3124998E5,5.1002344E2,7.8744375E3,0E0,1.1319141E3,1.5373672E3,5.4522082E4,3.8365234E1,1.6860486E2,0E0,7.27752E1,2.9449414E2,3.6333984E2,1.1977203E1,0E0,3.4619568E1,7.03005E0,1.5016174E2,8.7879196E1,0E0,3.3288355E0,7.942792E1,6.781641E1,0E0,0E0,1.7522748E2,3.623297E1,1.4116497E0,6.0282264E0,4.3979095E1,1.7563943E2,9.477313E1,3.7410812E1,4.632678E0,2.4017282E0,1.4011146E1,1.0622192E1,0E0,2.0205078E1,0E0,0E0,0E0,0E0,0E0,0E0,0E0,0E0,0E0,0E0,0E0,0E0,0E0,0E0,0E0,0E0,0E0,0E0,0E0,0E0,0E0,0E0,0E0,0E0,0E0,0E0],"parents":[2147483647,0,0,1,1,2,2,4,4,5,5,6,6,7,7,8,8,10,10,11,11,12,12,13,13,15,15,16,16,17,17,18,18,20,20,21,21,22,22,25,25,26,26,27,27,28,28,29,29,30,30,31,31,32,32,33,33,34,34,35,35,36,36,38,38],"right_children":[2,4,6,-1,8,10,12,14,16,-1,18,20,22,24,-1,26,28,30,32,-1,34,36,38,-1,-1,40,42,44,46,48,50,52,54,56,58,60,62,-1,64,-1,-1,-1,-1,-1,-1,-1,-1,-1,-1,-1,-1,-1,-1,-1,-1,-1,-1,-1,-1,-1,-1,-1,-1,-1,-1],"split_conditions":[1.08E2,1.38716455E14,2.05E2,-1.1714412E-1,1E0,1.38716455E14,2.21E2,1.387168E14,1E0,1.171602E-1,1E0,1.38716455E14,2.55E2,1E0,-1.0951129E-1,6.4E1,1.387168E14,1.7E2,1.91E2,-1.1715402E-1,1E0,1E0,1.38716455E14,-8.679612E-2,-2.2229277E-2,3.5E1,8.6E1,6.4E1,1E2,1.12E2,1.71E2,1.28E2,1.92E2,2.08E2,2.09E2,2.24E2,2.24E2,1.17160216E-1,1E0,-5.4659426E-2,6.309955E-2,-8.582059E-2,-1.152819E-2,5.509009E-2,-3.388318E-2,9.215801E-3,-3.193898E-2,1.19494334E-1,-4.729892E-2,1.0884073E-1,-3.407502E-2,6.0702085E-2,-1.337889E-2,1.1709859E-1,1.21620465E-2,5.664363E-2,-2.359411E-2,-7.5240918E-3,2.8986275E-2,7.459854E-2,2.3353898E-3,9.538823E-2,6.901302E-2,1.1438916E-1,1.0365061E-1],"split_indices":[3,0,3,0,3,0,3,0,2,0,2,0,3,2,0,3,0,3,3,0,2,2,0,0,0,3,3,3,3,3,3,3,3,3,3,3,3,0,2,0,0,0,0,0,0,0,0,0,0,0,0,0,0,0,0,0,0,0,0,0,0,0,0,0,0],"split_type":[0,0,0,0,0,0,0,0,0,0,0,0,0,0,0,0,0,0,0,0,0,0,0,0,0,0,0,0,0,0,0,0,0,0,0,0,0,0,0,0,0,0,0,0,0,0,0,0,0,0,0,0,0,0,0,0,0,0,0,0,0,0,0,0,0],"sum_hessian":[2.2577981E5,9.735876E4,1.2842106E5,7.7841734E4,1.951702E4,6.6548555E4,6.1872504E4,1.6870277E4,2.646743E3,6.4864133E4,1.684423E3,1.3161524E4,4.871098E4,6.066882E2,1.6263589E4,2.0634502E3,5.8329254E2,7.83078E2,9.01345E2,1.2989826E4,1.7169826E2,1.318119E3,4.7392863E4,5.755952E2,3.109296E1,1.557959E3,5.0549124E2,3.632905E1,5.469635E2,4.3462473E2,3.4845328E2,6.8999414E2,2.1135085E2,4.503252E1,1.26665726E2,2.4911446E2,1.0690046E3,3.8972266E4,8.420595E3,1.4200956E3,1.378634E2,4.2756946E2,7.792179E1,3.5092346E1,1.2367011E0,5.0967786E2,3.7285645E1,1.549194E1,4.191328E2,1.9725473E2,1.5119856E2,3.327856E2,3.572085E2,1.6855281E2,4.279804E1,7.8858056E0,3.7146717E1,2.1255564E1,1.05410164E2,2.9578636E1,2.1953583E2,1.9564926E2,8.7335535E2,2.7478906E3,5.6727036E3],"tree_param":{"num_deleted":"0","num_feature":"4","num_nodes":"65","size_leaf_vector":"0"}},{"base_weights":[2.658473E-2,-1.1131735E0,8.916397E-1,-1.1523769E0,-9.5897156E-1,1.1273264E0,6.379761E-1,-1.1524402E-1,1.14870444E-1,-1.0582078E0,-3.6427787E-1,1.152627E-1,2.148338E-1,-1.1360723E0,1.1170523E0,-8.0765224E-1,-1.0678314E0,-4.8559323E-1,4.489295E-2,-8.213613E-4,3.959077E-1,-1.1525246E-1,4.7103196E-2,5.7961935E-1,1.1327245E0,-8.377021E-2,-2.6452903E-2,-1.07090496E-1,-1.04194246E-1,-4.107056E-1,-7.210659E-1,5.852885E-1,9.408539E-3,4.5564935E-1,-6.3622755E-1,5.0204426E-1,-3.9369735E-1,7.9378136E-2,-6.065181E-2,1.436677E-1,6.87025E-1,1.15262486E-1,1.0412811E0,-4.5108777E-2,1.8615144E-1,-8.534872E-2,-4.606134E-3,8.37002E-2,3.4368943E-2,-1.5620479E-2,7.0655085E-3,6.205367E-4,1.07683875E-1,-1.02577366E-1,-1.8077392E-2,3.4363795E-2,1.02923416E-1,-1.10934794E-1,-1.3292119E-2,-1.1085348E-2,1.3186744E-2,3.626997E-2,-5.556889E-3,6.1713018E-2,9.155663E-2,1.1212348E-1,1.0024171E-1],"categories":[],"categories_nodes":[],"categories_segments":[],"categories_sizes":[],"default_left":[0,0,0,0,0,0,0,0,0,0,0,0,0,0,0,0,0,0,0,0,0,0,0,0,0,0,0,0,0,0,0,0,0,0,0,0,0,0,0,0,0,0,0,0,0,0,0,0,0,0,0,0,0,0,0,0,0,0,0,0,0,0,0,0,0,0,0],"id":13,"left_children":[1,3,5,7,9,11,13,-1,-1,15,17,-1,19,21,23,25,27,29,31,33,35,-1,37,39,41,-1,-1,-1,-1,43,45,47,49,51,53,55,57,59,-1,61,63,-1,65,-1,-1,-1,-1,-1,-1,-1,-1,-1,-1,-1,-1,-1,-1,-1,-1,-1,-1,-1,-1,-1,-1,-1,-1],"loss_changes":[2.0510822E5,5.415469E2,7.069914E3,1.17578125E1,1.0737461E3,1.4150781E3,4.8414945E4,0E0,0E0,3.6746094E1,1.2929935E2,0E0,6.4633804E1,2.3583691E2,3.77125E2,9.261383E0,8.0078125E-2,3.5128204E1,1.1432775E1,2.196923E2,7.559978E1,0E0,3.572762E0,5.950482E1,7.810547E1,0E0,0E0,0E0,0E0,1.4090405E2,4.3169586E1,1.9465504E0,5.698989E0,1.2305672E2,5.599588E1,6.591615E1,1.9852865E1,1.6132448E0,0E0,1.1055893E1,1.5745056E1,0E0,2.3110352E1,0E0,0E0,0E0,0E0,0E0,0E0,0E0,0E0,0E0,0E0,0E0,0E0,0E0,0E0,0E0,0E0,0E0,0E0,0E0,0E0,0E0,0E0,0E0,0E0],"parents":[2147483647,0,0,1,1,2,2,3,3,4,4,5,5,6,6,9,9,10,10,12,12,13,13,14,14,15,15,16,16,17,17,18,18,19,19,20,20,22,22,23,23,24,24,29,29,30,30,31,31,32,32,33,33,34,34,35,35,36,36,37,37,39,39,40,40,42,42],"right_children":[2,4,6,8,10,12,14,-1,-1,16,18,-1,20,22,24,26,28,30,32,34,36,-1,38,40,42,-1,-1,-1,-1,44,46,48,50,52,54,56,58,60,-1,62,64,-1,66,-1,-1,-1,-1,-1,-1,-1,-1,-1,-1,-1,-1,-1,-1,-1,-1,-1,-1,-1,-1,-1,-1,-1,-1],"split_conditions":[1.08E2,1.38716455E14,2.05E2,1E0,1E0,1.38716455E14,2.21E2,-1.1524402E-1,1.14870444E-1,1.387168E14,1E0,1.152627E-1,1.47E2,1.387168E14,2.55E2,1E0,1E0,6.4E1,1.387168E14,1.28E2,1.92E2,-1.1525246E-1,2.2E2,1E0,1.38716455E14,-8.377021E-2,-2.6452903E-2,-1.07090496E-1,-1.04194246E-1,6.3E1,8.6E1,8E0,1E1,1.27E2,1.29E2,1.9E2,1.93E2,2.09E2,-6.065181E-2,2.4E2,2.53E2,1.15262486E-1,1E0,-4.5108777E-2,1.8615144E-1,-8.534872E-2,-4.606134E-3,8.37002E-2,3.4368943E-2,-1.5620479E-2,7.0655085E-3,6.205367E-4,1.07683875E-1,-1.02577366E-1,-1.8077392E-2,3.4363795E-2,1.02923416E-1,-1.10934794E-1,-1.3292119E-2,-1.1085348E-2,1.3186744E-2,3.626997E-2,-5.556889E-3,6.1713018E-2,9.155663E-2,1.1212348E-1,1.0024171E-1],"split_indices":[3,0,3,2,3,0,3,0,0,0,2,0,3,0,3,2,2,3,0,3,3,0,3,2,0,0,0,0,0,3,3,3,3,3,3,3,3,3,0,3,3,0,2,0,0,0,0,0,0,0,0,0,0,0,0,0,0,0,0,0,0,0,0,0,0,0,0],"split_type":[0,0,0,0,0,0,0,0,0,0,0,0,0,0,0,0,0,0,0,0,0,0,0,0,0,0,0,0,0,0,0,0,0,0,0,0,0,0,0,0,0,0,0,0,0,0,0,0,0,0,0,0,0,0,0,0,0,0,0,0,0,0,0,0,0,0,0],"sum_hessian":[2.0802831E5,8.976183E4,1.1826649E5,7.1561875E4,1.8199947E4,6.1303812E4,5.6962684E4,7.156041E4,1.4721584E0,1.5596576E4,2.60337E3,5.9649645E4,1.654167E3,1.2111539E4,4.4851145E4,5.800375E2,1.5016539E4,2.0078688E3,5.955013E2,7.554444E2,8.9872266E2,1.1945461E4,1.6607845E2,1.2719348E3,4.3579207E4,5.4911383E2,3.0923658E1,1.3386867E4,1.6296722E3,1.5254669E3,4.8240182E2,3.5738712E1,5.597626E2,4.397875E2,3.156569E2,7.925539E2,1.0616874E2,1.5910081E2,6.9776278E0,2.5188597E2,1.02004877E3,3.5780844E4,7.798365E3,1.499617E3,2.5849907E1,4.0306476E2,7.933704E1,1.6296034E1,1.9442677E1,1.5070345E2,4.0905914E2,2.5575395E2,1.8403354E2,1.6946368E2,1.4619322E2,6.1070526E2,1.8184862E2,2.7485632E1,7.868311E1,3.4165688E1,1.2493513E2,1.1959167E2,1.322943E2,7.839833E2,2.360655E2,2.5416482E3,5.2567173E3],"tree_param":{"num_deleted":"0","num_feature":"4","num_nodes":"67","size_leaf_vector":"0"}},{"base_weights":[2.6338696E-2,-1.0928159E0,8.773679E-1,-1.1357417E0,-9.271252E-1,1.1086315E0,6.288159E-1,-1.1358178E-1,1.1363969E-1,-1.0345614E0,-3.1715325E-1,1.1360073E-1,1.8010218E-1,-1.1168302E0,1.0983028E0,-7.578933E-1,-1.0453422E0,-4.345544E-1,7.371426E-2,-1.3768301E-2,3.5427642E-1,-1.1359345E-1,9.923665E-2,5.639185E-1,1.1146145E0,-7.9773135E-2,-1.1597297E-2,-1.04898654E-1,-1.0149103E-1,-3.9077345E-1,-7.342639E-1,-1.3955346E-1,1.2656827E-1,3.8356656E-1,-5.302962E-1,7.476036E-1,1.3945363E-1,-1.4274552E-1,1.8227652E-1,1.905437E-1,6.6164243E-1,1.13600306E-1,1.0176153E0,-4.3229025E-2,6.1021592E-2,-1.0763296E-1,4.5239297E-3,1.953284E-2,-1.7399314E-1,1.19483605E-1,5.0174897E-3,-2.1060517E-3,9.962427E-2,-9.74985E-2,-1.0557825E-2,3.0070974E-2,1.0300159E-1,-1.7718246E-2,4.720844E-2,1.1352995E-2,-6.2283844E-2,-6.1731366E-3,2.290212E-2,3.0005857E-2,-2.1986809E-2,5.980901E-2,8.721235E-2,1.1024173E-1,9.771394E-2],"categories":[],"categories_nodes":[],"categories_segments":[],"categories_sizes":[],"default_left":[0,0,0,0,0,0,0,0,0,0,0,0,0,0,0,0,0,0,0,0,0,0,0,0,0,0,0,0,0,0,0,0,0,0,0,0,0,0,0,0,0,0,0,0,0,0,0,0,0,0,0,0,0,0,0,0,0,0,0,0,0,0,0,0,0,0,0,0,0],"id":14,"left_children":[1,3,5,7,9,11,13,-1,-1,15,17,-1,19,21,23,25,27,29,31,33,35,-1,37,39,41,-1,-1,-1,-1,43,45,47,49,51,53,55,57,59,61,63,65,-1,67,-1,-1,-1,-1,-1,-1,-1,-1,-1,-1,-1,-1,-1,-1,-1,-1,-1,-1,-1,-1,-1,-1,-1,-1,-1,-1],"loss_changes":[1.8240428E5,5.873203E2,6.252586E3,1.2640625E1,1.1155264E3,1.43225E3,4.297618E4,0E0,0E0,4.238867E1,1.17111084E2,0E0,5.454088E1,2.5831934E2,3.5958203E2,1.388559E1,4.814453E-1,2.5460358E1,6.6702247E0,1.5726431E2,7.178304E1,0E0,3.498739E0,4.4608826E1,8.203125E1,0E0,0E0,0E0,0E0,7.150421E1,6.6432755E1,6.3414696E1,3.8580986E1,1.0739482E2,6.281833E1,3.75907E1,5.8167194E1,5.572288E0,1.4867425E0,1.1560059E1,1.2471008E1,0E0,2.3821777E1,0E0,0E0,0E0,0E0,0E0,0E0,0E0,0E0,0E0,0E0,0E0,0E0,0E0,0E0,0E0,0E0,0E0,0E0,0E0,0E0,0E0,0E0,0E0,0E0,0E0,0E0],"parents":[2147483647,0,0,1,1,2,2,3,3,4,4,5,5,6,6,9,9,10,10,12,12,13,13,14,14,15,15,16,16,17,17,18,18,19,19,20,20,22,22,23,23,24,24,29,29,30,30,31,31,32,32,33,33,34,34,35,35,36,36,37,37,38,38,39,39,40,40,42,42],"right_children":[2,4,6,8,10,12,14,-1,-1,16,18,-1,20,22,24,26,28,30,32,34,36,-1,38,40,42,-1,-1,-1,-1,44,46,48,50,52,54,56,58,60,62,64,66,-1,68,-1,-1,-1,-1,-1,-1,-1,-1,-1,-1,-1,-1,-1,-1,-1,-1,-1,-1,-1,-1,-1,-1,-1,-1,-1,-1],"split_conditions":[1.08E2,1.38716455E14,2.05E2,1E0,1E0,1.38716455E14,2.21E2,-1.1358178E-1,1.1363969E-1,1.387168E14,1E0,1.1360073E-1,1.51E2,1.38716455E14,2.55E2,1E0,1E0,8.5E1,5E0,1.28E2,1.71E2,-1.1359345E-1,1E0,1E0,1.38716455E14,-7.9773135E-2,-1.1597297E-2,-1.04898654E-1,-1.0149103E-1,6.5E1,8.6E1,4E0,8E0,1.27E2,1.29E2,1.7E2,1.9E2,2.16E2,2.09E2,2.52E2,2.53E2,1.13600306E-1,1E0,-4.3229025E-2,6.1021592E-2,-1.0763296E-1,4.5239297E-3,1.953284E-2,-1.7399314E-1,1.19483605E-1,5.0174897E-3,-2.1060517E-3,9.962427E-2,-9.74985E-2,-1.0557825E-2,3.0070974E-2,1.0300159E-1,-1.7718246E-2,4.720844E-2,1.1352995E-2,-6.2283844E-2,-6.1731366E-3,2.290212E-2,3.0005857E-2,-2.1986809E-2,5.980901E-2,8.721235E-2,1.1024173E-1,9.771394E-2],"split_indices":[3,0,3,2,3,0,3,0,0,0,2,0,3,0,3,2,2,3,3,3,3,0,2,2,0,0,0,0,0,3,3,3,3,3,3,3,3,3,3,3,3,0,2,0,0,0,0,0,0,0,0,0,0,0,0,0,0,0,0,0,0,0,0,0,0,0,0,0,0],"split_type":[0,0,0,0,0,0,0,0,0,0,0,0,0,0,0,0,0,0,0,0,0,0,0,0,0,0,0,0,0,0,0,0,0,0,0,0,0,0,0,0,0,0,0,0,0,0,0,0,0,0,0,0,0,0,0,0,0,0,0,0,0,0,0,0,0,0,0,0,0],"sum_hessian":[1.9151197E5,8.272428E4,1.0878769E5,6.569792E4,1.7026365E4,5.635194E4,5.2435746E4,6.569622E4,1.6969098E0,1.4475974E4,2.5503918E3,5.4737883E4,1.6140564E3,1.1113217E4,4.132253E4,5.455996E2,1.3930374E4,1.96121E3,5.8918176E2,7.6427515E2,8.4978125E2,1.0941395E4,1.7182228E2,1.2250287E3,4.00975E4,5.134894E2,3.211022E1,1.2410698E4,1.5196758E3,1.7132461E3,2.4796385E2,1.1669067E2,4.7249112E2,4.321244E2,3.3215076E2,2.9930048E2,5.504808E2,4.3715164E1,1.2810712E2,2.5472989E2,9.7029877E2,3.2844504E4,7.2529995E3,1.6455632E3,6.768284E1,1.7207304E2,7.58908E1,9.7224266E1,1.94664E1,3.0556423E1,4.419347E2,2.608307E2,1.712937E2,1.6162761E2,1.7052316E2,1.1669892E2,1.8260155E2,2.822603E2,2.6822043E2,2.8998943E1,1.4716224E1,2.054441E1,1.07562706E2,2.0128705E2,5.344284E1,7.48223E2,2.2207574E2,2.3348916E3,4.918108E3],"tree_param":{"num_deleted":"0","num_feature":"4","num_nodes":"69","size_leaf_vector":"0"}},{"base_weights":[2.6107514E-2,-1.074643E0,8.6403674E-1,-1.1211603E0,-8.984186E-1,1.0924749E0,6.1811537E-1,-1.1212392E-1,1.0769757E-1,-1.0122492E0,-2.916809E-1,1.1213982E-1,1.7542668E-1,-1.1011945E0,1.0799166E0,-7.146361E-1,-1.0241937E-1,-4.0748426E-1,8.664989E-2,-1.138578E-2,3.4108803E-1,-1.1213187E-1,1.0199859E-1,5.1678336E-1,1.0979009E0,-7.601314E-2,-1.628592E-5,-3.6019376E-1,-7.3681134E-1,-7.756342E-3,1.9242153E-1,3.7062684E-1,-5.1023513E-1,4.4560176E-1,-3.8973433E-1,-8.490451E-2,1.6812907E-1,1.23394735E-1,6.2138534E-1,1.1213918E-1,9.9251795E-1,-3.9677016E-2,4.8722398E-2,-1.07149124E-1,-3.8082402E-3,1.13603985E-2,-1.11848965E-1,5.0970282E-2,8.085235E-4,-2.1818085E-2,7.952637E-2,-9.233104E-2,-1.51982745E-2,3.011519E-2,9.771511E-2,-7.52522E-2,1.2231782E-2,1.6375426E-2,-6.0102697E-2,2.004265E-2,-3.6330517E-2,7.455929E-2,4.5619914E-3,5.566548E-2,8.3924554E-2,1.08543456E-1,9.48627E-2],"categories":[],"categories_nodes":[],"categories_segments":[],"categories_sizes":[],"default_left":[0,0,0,0,0,0,0,0,0,0,0,0,0,0,0,0,0,0,0,0,0,0,0,0,0,0,0,0,0,0,0,0,0,0,0,0,0,0,0,0,0,0,0,0,0,0,0,0,0,0,0,0,0,0,0,0,0,0,0,0,0,0,0,0,0,0,0],"id":15,"left_children":[1,3,5,7,9,11,13,-1,-1,15,17,-1,19,21,23,25,-1,27,29,31,33,-1,35,37,39,-1,-1,41,43,45,47,49,51,53,55,57,59,61,63,-1,65,-1,-1,-1,-1,-1,-1,-1,-1,-1,-1,-1,-1,-1,-1,-1,-1,-1,-1,-1,-1,-1,-1,-1,-1,-1,-1],"loss_changes":[1.6221428E5,6.22125E2,5.609039E3,1.16328125E1,1.0964492E3,1.3728711E3,3.8183906E4,0E0,0E0,4.679785E1,1.1000302E2,0E0,4.902388E1,2.4666895E2,3.8335547E2,1.687741E1,0E0,2.9666962E1,5.8835187E0,1.4224258E2,6.429863E1,0E0,2.0960054E0,4.8276978E1,8.982422E1,0E0,0E0,5.2345123E1,5.6170837E1,4.221291E1,1.6246037E1,1.0586815E2,4.7762108E1,5.6138184E1,1.9703995E1,5.8328876E0,2.2138925E0,1.1970499E1,1.2619873E1,0E0,2.6313965E1,0E0,0E0,0E0,0E0,0E0,0E0,0E0,0E0,0E0,0E0,0E0,0E0,0E0,0E0,0E0,0E0,0E0,0E0,0E0,0E0,0E0,0E0,0E0,0E0,0E0,0E0],"parents":[2147483647,0,0,1,1,2,2,3,3,4,4,5,5,6,6,9,9,10,10,12,12,13,13,14,14,15,15,17,17,18,18,19,19,20,20,22,22,23,23,24,24,27,27,28,28,29,29,30,30,31,31,32,32,33,33,34,34,35,35,36,36,37,37,38,38,40,40],"right_children":[2,4,6,8,10,12,14,-1,-1,16,18,-1,20,22,24,26,-1,28,30,32,34,-1,36,38,40,-1,-1,42,44,46,48,50,52,54,56,58,60,62,64,-1,66,-1,-1,-1,-1,-1,-1,-1,-1,-1,-1,-1,-1,-1,-1,-1,-1,-1,-1,-1,-1,-1,-1,-1,-1,-1,-1],"split_conditions":[1.08E2,1.38716455E14,2.05E2,1E0,1E0,1.38716455E14,2.21E2,-1.1212392E-1,1.0769757E-1,1.387168E14,1E0,1.1213982E-1,1.52E2,1.38716455E14,2.55E2,1E0,-1.0241937E-1,8.5E1,4.1E1,1.28E2,1.92E2,-1.1213187E-1,1E0,1E0,1.38716455E14,-7.601314E-2,-1.628592E-5,6.5E1,8.6E1,3.2E1,6.4E1,1.21E2,1.29E2,1.91E2,1.99E2,2.16E2,2.2E2,2.24E2,2.53E2,1.1213918E-1,1E0,-3.9677016E-2,4.8722398E-2,-1.07149124E-1,-3.8082402E-3,1.13603985E-2,-1.11848965E-1,5.0970282E-2,8.085235E-4,-2.1818085E-2,7.952637E-2,-9.233104E-2,-1.51982745E-2,3.011519E-2,9.771511E-2,-7.52522E-2,1.2231782E-2,1.6375426E-2,-6.0102697E-2,2.004265E-2,-3.6330517E-2,7.455929E-2,4.5619914E-3,5.566548E-2,8.3924554E-2,1.08543456E-1,9.48627E-2],"split_indices":[3,0,3,2,3,0,3,0,0,0,2,0,3,0,3,2,0,3,3,3,3,0,2,2,0,0,0,3,3,3,3,3,3,3,3,3,3,3,3,0,2,0,0,0,0,0,0,0,0,0,0,0,0,0,0,0,0,0,0,0,0,0,0,0,0,0,0],"split_type":[0,0,0,0,0,0,0,0,0,0,0,0,0,0,0,0,0,0,0,0,0,0,0,0,0,0,0,0,0,0,0,0,0,0,0,0,0,0,0,0,0,0,0,0,0,0,0,0,0,0,0,0,0,0,0,0,0,0,0,0,0,0,0,0,0,0,0],"sum_hessian":[1.7586845E5,7.601311E4,9.9855336E4,6.0134305E4,1.5878808E4,5.176603E4,4.808931E4,6.0132637E4,1.6680918E0,1.3369815E4,2.5089927E3,5.0183062E4,1.5829674E3,1.0181537E4,3.790777E4,5.1822534E2,1.285159E4,1.9209358E3,5.8805676E2,7.444264E2,8.385411E2,1.0014111E4,1.6742491E2,1.1740819E3,3.6733688E4,4.8714185E2,3.1083494E1,1.6815616E3,2.3937418E2,3.1121194E2,2.7684482E2,4.2172876E2,3.226976E2,7.339678E2,1.04573296E2,4.3682407E1,1.237425E2,2.4707144E2,9.270105E2,3.003006E4,6.7036284E3,1.6124946E3,6.9066986E1,1.6148972E2,7.788446E1,2.813671E2,2.9844854E1,1.0108733E2,1.7575749E2,1.7690958E2,2.448192E2,1.4914821E2,1.735494E2,5.783628E2,1.55605E2,6.0932884E1,4.364041E1,2.9940378E1,1.3742029E1,1.1724019E2,6.5023103E0,2.6498333E1,2.205731E2,7.174093E2,2.0960118E2,2.1430615E3,4.5605664E3],"tree_param":{"num_deleted":"0","num_feature":"4","num_nodes":"67","size_leaf_vector":"0"}},{"base_weights":[2.4820656E-2,-1.0581566E0,8.509959E-1,-1.1082623E0,-8.721405E-1,1.0778137E0,6.081092E-1,-1.10832155E-1,9.0511166E-2,-9.8977077E-1,-2.813961E-1,1.108516E-1,1.6124415E-1,-1.0879613E0,1.0624522E0,-6.708016E-1,-1.0029045E0,-3.9213493E-1,7.1933486E-2,-3.5329987E-3,3.5874325E-1,-1.1084292E-1,5.645684E-2,4.7234818E-1,1.082578E0,-7.095517E-2,-9.36537E-3,-1.00726806E-1,-9.664073E-2,-3.2022983E-1,-6.281014E-1,5.013685E-1,4.607383E-2,-3.400957E-1,3.0721262E-1,1.0099885E0,1.4825392E-1,7.993882E-2,-3.7971464E-1,9.049297E-2,5.81737E-1,1.1085077E-1,9.671268E-1,-4.161119E-2,5.87991E-2,-7.38979E-2,1.3881492E-4,7.6474115E-2,3.5374653E-2,-8.0077315E-4,2.3873806E-2,1.0353376E-1,-3.932054E-2,-3.6960423E-2,4.3358818E-2,1.0214134E-1,2.4786161E-2,-2.922429E-2,3.1989764E-2,-5.5619115E-3,1.7408205E-2,1.3607809E-2,-5.3108126E-2,1.04453325E-1,3.781445E-3,8.241808E-2,5.26641E-2,1.0707861E-1,9.19019E-2],"categories":[],"categories_nodes":[],"categories_segments":[],"categories_sizes":[],"default_left":[0,0,0,0,0,0,0,0,0,0,0,0,0,0,0,0,0,0,0,0,0,0,0,0,0,0,0,0,0,0,0,0,0,0,0,0,0,0,0,0,0,0,0,0,0,0,0,0,0,0,0,0,0,0,0,0,0,0,0,0,0,0,0,0,0,0,0,0,0],"id":16,"left_children":[1,3,5,7,9,11,13,-1,-1,15,17,-1,19,21,23,25,27,29,31,33,35,-1,37,39,41,-1,-1,-1,-1,43,45,47,49,51,53,55,57,59,61,63,65,-1,67,-1,-1,-1,-1,-1,-1,-1,-1,-1,-1,-1,-1,-1,-1,-1,-1,-1,-1,-1,-1,-1,-1,-1,-1,-1,-1],"loss_changes":[1.443075E5,6.495625E2,5.0396484E3,7.5546875E0,1.0292451E3,1.3311328E3,3.404815E4,0E0,0E0,5.108496E1,9.634456E1,0E0,4.993935E1,2.1873535E2,4.1335547E2,1.0928513E1,9.1503906E-1,3.1601562E1,6.5094438E0,8.769957E1,9.552728E1,0E0,1.7201296E0,4.8029083E1,9.980469E1,0E0,0E0,0E0,0E0,1.2552409E2,3.0482986E1,1.0245552E0,5.794578E0,2.9812576E1,3.745277E1,1.2298126E0,4.0063904E1,2.0181437E0,7.438779E-1,1.290205E1,1.1515503E1,0E0,2.9875E1,0E0,0E0,0E0,0E0,0E0,0E0,0E0,0E0,0E0,0E0,0E0,0E0,0E0,0E0,0E0,0E0,0E0,0E0,0E0,0E0,0E0,0E0,0E0,0E0,0E0,0E0],"parents":[2147483647,0,0,1,1,2,2,3,3,4,4,5,5,6,6,9,9,10,10,12,12,13,13,14,14,15,15,16,16,17,17,18,18,19,19,20,20,22,22,23,23,24,24,29,29,30,30,31,31,32,32,33,33,34,34,35,35,36,36,37,37,38,38,39,39,40,40,42,42],"right_children":[2,4,6,8,10,12,14,-1,-1,16,18,-1,20,22,24,26,28,30,32,34,36,-1,38,40,42,-1,-1,-1,-1,44,46,48,50,52,54,56,58,60,62,64,66,-1,68,-1,-1,-1,-1,-1,-1,-1,-1,-1,-1,-1,-1,-1,-1,-1,-1,-1,-1,-1,-1,-1,-1,-1,-1,-1,-1],"split_conditions":[1.08E2,1.38716455E14,2.05E2,1E0,1E0,1.38716455E14,2.21E2,-1.10832155E-1,9.0511166E-2,1.387168E14,1E0,1.108516E-1,1.7E2,1.38716455E14,2.55E2,1E0,1E0,6.4E1,1.387168E14,1E0,1.71E2,-1.1084292E-1,2.2E2,1E0,1.38716455E14,-7.095517E-2,-9.36537E-3,-1.00726806E-1,-9.664073E-2,3.5E1,9E1,4E0,8.1E1,1.12E2,1.18E2,1E0,1E0,2.14E2,1E0,2.22E2,2.24E2,1.1085077E-1,1E0,-4.161119E-2,5.87991E-2,-7.38979E-2,1.3881492E-4,7.6474115E-2,3.5374653E-2,-8.0077315E-4,2.3873806E-2,1.0353376E-1,-3.932054E-2,-3.6960423E-2,4.3358818E-2,1.0214134E-1,2.4786161E-2,-2.922429E-2,3.1989764E-2,-5.5619115E-3,1.7408205E-2,1.3607809E-2,-5.3108126E-2,1.04453325E-1,3.781445E-3,8.241808E-2,5.26641E-2,1.0707861E-1,9.19019E-2],"split_indices":[3,0,3,2,3,0,3,0,0,0,2,0,3,0,3,2,2,3,0,2,3,0,3,2,0,0,0,0,0,3,3,3,3,3,3,2,2,3,2,3,3,0,2,0,0,0,0,0,0,0,0,0,0,0,0,0,0,0,0,0,0,0,0,0,0,0,0,0,0],"split_type":[0,0,0,0,0,0,0,0,0,0,0,0,0,0,0,0,0,0,0,0,0,0,0,0,0,0,0,0,0,0,0,0,0,0,0,0,0,0,0,0,0,0,0,0,0,0,0,0,0,0,0,0,0,0,0,0,0,0,0,0,0,0,0,0,0,0,0,0,0],"sum_hessian":[1.6128425E5,6.979475E4,9.14895E4,5.4980215E4,1.4814536E4,4.730793E4,4.4181574E4,5.4979047E4,1.1676927E0,1.2353922E4,2.4606143E3,4.5774418E4,1.5335103E3,9.334463E3,3.484711E4,4.906252E2,1.1863297E4,1.8733639E3,5.8725037E2,8.3654626E2,6.96964E2,9.17048E3,1.6398221E2,1.1500879E3,3.3697023E4,4.5954184E2,3.1083357E1,1.0572683E4,1.2906144E3,1.437636E3,4.3572787E2,3.231002E1,5.5494037E2,4.0154547E2,4.350008E2,1.6931429E2,5.2764966E2,1.5637997E2,7.6022367E0,2.5650516E2,8.935827E2,2.7509867E4,6.1871562E3,1.3008458E3,1.3679016E2,3.703253E2,6.540261E1,1.0103664E1,2.2206356E1,4.340573E2,1.20883064E2,1.4240892E1,3.873046E2,6.814089E1,3.668599E2,1.6647841E2,2.8358688E0,1.4775555E2,3.7989413E2,6.426019E1,9.211979E1,1.7477286E0,5.854508E0,1.2436897E1,2.4406827E2,1.6288158E2,7.307011E2,1.9544926E3,4.2326636E3],"tree_param":{"num_deleted":"0","num_feature":"4","num_nodes":"69","size_leaf_vector":"0"}},{"base_weights":[2.4802564E-2,-1.0416335E0,8.4030753E-1,-1.096825E0,-8.407135E-1,1.0635537E0,6.0141194E-1,-1.09691046E-1,9.8202616E-2,-9.649602E-1,-2.5252533E-1,1.09712504E-1,1.38604E-1,-1.074456E0,1.0480559E0,-6.3379097E-1,-9.791521E-2,-3.5026956E-1,5.066558E-2,-2.6051737E-2,2.729315E-1,-1.0970296E-1,4.1372072E-2,4.334853E-1,1.0701407E0,-6.7078896E-2,-1.1635292E-2,-3.0556473E-1,-6.7928505E-1,5.4012847E-1,2.0296682E-2,2.87228E-1,-4.8182446E-1,3.6373436E-1,-3.6641327E-1,-8.3358526E-2,1.2215023E-1,9.3753815E-2,5.312995E-1,1.0971146E-1,9.5172846E-1,-3.4216344E-2,5.1126756E-2,-1.0246303E-1,-8.131343E-3,7.978832E-2,2.952303E-2,-3.7724196E-3,2.1297727E-2,-6.9319466E-3,8.92165E-2,-8.911266E-2,-7.882524E-3,2.2471195E-2,9.241369E-2,-6.452536E-2,3.041447E-3,1.7044988E-2,-2.5800679E-2,7.191919E-2,4.303879E-3,8.7867E-2,4.85757E-3,4.611441E-2,7.7528216E-2,1.0565566E-1,9.0327E-2],"categories":[],"categories_nodes":[],"categories_segments":[],"categories_sizes":[],"default_left":[0,0,0,0,0,0,0,0,0,0,0,0,0,0,0,0,0,0,0,0,0,0,0,0,0,0,0,0,0,0,0,0,0,0,0,0,0,0,0,0,0,0,0,0,0,0,0,0,0,0,0,0,0,0,0,0,0,0,0,0,0,0,0,0,0,0,0],"id":17,"left_children":[1,3,5,7,9,11,13,-1,-1,15,17,-1,19,21,23,25,-1,27,29,31,33,-1,35,37,39,-1,-1,41,43,45,47,49,51,53,55,57,59,61,63,-1,65,-1,-1,-1,-1,-1,-1,-1,-1,-1,-1,-1,-1,-1,-1,-1,-1,-1,-1,-1,-1,-1,-1,-1,-1,-1,-1],"loss_changes":[1.2872222E5,7.103047E2,4.472496E3,1.0011719E1,1.0101533E3,1.3461133E3,3.032994E4,0E0,0E0,5.3026367E1,7.1513794E1,0E0,3.3617813E1,2.1482227E2,4.3376172E2,8.955688E0,0E0,2.6628418E1,8.74462E0,9.775299E1,4.872313E1,0E0,1.7234718E0,3.688492E1,9.759766E1,0E0,0E0,4.8248505E1,4.4817947E1,1.9341507E0,6.2199893E0,8.758542E1,4.592794E1,5.692936E1,1.1592226E1,3.033093E0,4.862935E0,8.811419E0,1.4410492E1,0E0,2.8189453E1,0E0,0E0,0E0,0E0,0E0,0E0,0E0,0E0,0E0,0E0,0E0,0E0,0E0,0E0,0E0,0E0,0E0,0E0,0E0,0E0,0E0,0E0,0E0,0E0,0E0,0E0],"parents":[2147483647,0,0,1,1,2,2,3,3,4,4,5,5,6,6,9,9,10,10,12,12,13,13,14,14,15,15,17,17,18,18,19,19,20,20,22,22,23,23,24,24,27,27,28,28,29,29,30,30,31,31,32,32,33,33,34,34,35,35,36,36,37,37,38,38,40,40],"right_children":[2,4,6,8,10,12,14,-1,-1,16,18,-1,20,22,24,26,-1,28,30,32,34,-1,36,38,40,-1,-1,42,44,46,48,50,52,54,56,58,60,62,64,-1,66,-1,-1,-1,-1,-1,-1,-1,-1,-1,-1,-1,-1,-1,-1,-1,-1,-1,-1,-1,-1,-1,-1,-1,-1,-1,-1],"split_conditions":[1.08E2,1.38716455E14,2.05E2,1E0,1E0,1.38716455E14,2.21E2,-1.09691046E-1,9.8202616E-2,1.387168E14,1E0,1.09712504E-1,1.47E2,1.38716455E14,2.55E2,1E0,-9.791521E-2,8.5E1,1.387168E14,1.28E2,1.92E2,-1.0970296E-1,2.14E2,1E0,1.38716455E14,-6.7078896E-2,-1.1635292E-2,6.5E1,8.6E1,8E0,8.1E1,1.27E2,1.29E2,1.91E2,1.99E2,2.08E2,2.15E2,2.22E2,2.53E2,1.0971146E-1,1E0,-3.4216344E-2,5.1126756E-2,-1.0246303E-1,-8.131343E-3,7.978832E-2,2.952303E-2,-3.7724196E-3,2.1297727E-2,-6.9319466E-3,8.92165E-2,-8.911266E-2,-7.882524E-3,2.2471195E-2,9.241369E-2,-6.452536E-2,3.041447E-3,1.7044988E-2,-2.5800679E-2,7.191919E-2,4.303879E-3,8.7867E-2,4.85757E-3,4.611441E-2,7.7528216E-2,1.0565566E-1,9.0327E-2],"split_indices":[3,0,3,2,3,0,3,0,0,0,2,0,3,0,3,2,0,3,0,3,3,0,3,2,0,0,0,3,3,3,3,3,3,3,3,3,3,3,3,0,2,0,0,0,0,0,0,0,0,0,0,0,0,0,0,0,0,0,0,0,0,0,0,0,0,0,0],"split_type":[0,0,0,0,0,0,0,0,0,0,0,0,0,0,0,0,0,0,0,0,0,0,0,0,0,0,0,0,0,0,0,0,0,0,0,0,0,0,0,0,0,0,0,0,0,0,0,0,0,0,0,0,0,0,0,0,0,0,0,0,0,0,0,0,0,0,0],"sum_hessian":[1.4800833E5,6.4136605E4,8.387173E4,5.0311785E4,1.3824818E4,4.3354156E4,4.0517574E4,5.031019E4,1.5962008E0,1.1413278E4,2.4115405E3,4.183553E4,1.5186227E3,8.52589E3,3.1991686E4,4.7087973E2,1.0942398E4,1.823512E3,5.8802844E2,6.826505E2,8.359721E2,8.356845E3,1.69045E2,1.110469E3,3.0881217E4,4.3918094E2,3.1698774E1,1.6070795E3,2.1643253E2,3.3372364E1,5.5465607E2,4.0478647E2,2.7786407E2,7.3238617E2,1.0358597E2,6.6433E1,1.02612E2,2.4868535E2,8.617837E2,2.5145012E4,5.7362046E3,1.5387173E3,6.836216E1,1.3674498E2,7.9687546E1,1.5159263E1,1.8213102E1,4.269078E2,1.2774826E2,2.552365E2,1.4954997E2,1.372531E2,1.4061096E2,5.879347E2,1.4445148E2,6.0469578E1,4.3116394E1,2.7089336E1,3.9343662E1,1.1059185E1,9.155281E1,1.2530678E1,2.3615468E2,6.7156903E2,1.9021466E2,1.8068074E3,3.929397E3],"tree_param":{"num_deleted":"0","num_feature":"4","num_nodes":"67","size_leaf_vector":"0"}},{"base_weights":[2.4331665E-2,-1.0267847E0,8.292375E-1,-1.0867479E0,-8.142376E-1,1.0515486E0,5.9162736E-1,-1.0868124E-1,8.263796E-2,-9.431002E-1,-2.4194767E-1,1.0870279E-1,1.4326815E-1,-1.062167E0,1.0320531E0,-6.021382E-1,-9.581039E-1,-3.313014E-1,2.360535E-2,-9.586112E-3,2.7574068E-1,-1.0869236E-1,9.062738E-2,4.1482905E-1,1.0556366E0,-6.3305944E-2,-1.6887782E-2,-9.618281E-2,-9.269858E-2,-2.6183146E-1,-5.6738627E-1,4.8366413E-2,-3.3611652E-1,3.319717E-1,-4.590596E-1,6.34583E-1,9.197321E-2,-1.0543767E-2,1.3742821E-1,6.715421E-2,5.191084E-1,1.0870153E-1,9.2001474E-1,-3.0141924E-2,1.630444E-1,-9.522728E-2,-3.8379725E-2,-1.4266491E-4,6.6387855E-2,-2.1035852E-2,-6.587394E-2,-1.3893304E-3,9.264017E-2,-8.950966E-2,-1.2853271E-2,1.6486216E-2,9.6777E-2,-6.6778235E-2,2.1861682E-2,1.9622518E-2,-2.1278476E-2,4.3012746E-2,5.3642965E-3,9.1934904E-2,2.2165708E-3,4.4996914E-2,7.7075124E-2,1.0358273E-1,8.6722575E-2],"categories":[],"categories_nodes":[],"categories_segments":[],"categories_sizes":[],"default_left":[0,0,0,0,0,0,0,0,0,0,0,0,0,0,0,0,0,0,0,0,0,0,0,0,0,0,0,0,0,0,0,0,0,0,0,0,0,0,0,0,0,0,0,0,0,0,0,0,0,0,0,0,0,0,0,0,0,0,0,0,0,0,0,0,0,0,0,0,0],"id":18,"left_children":[1,3,5,7,9,11,13,-1,-1,15,17,-1,19,21,23,25,27,29,31,33,35,-1,37,39,41,-1,-1,-1,-1,43,45,47,49,51,53,55,57,59,61,63,65,-1,67,-1,-1,-1,-1,-1,-1,-1,-1,-1,-1,-1,-1,-1,-1,-1,-1,-1,-1,-1,-1,-1,-1,-1,-1,-1,-1],"loss_changes":[1.1475508E5,7.488008E2,4.0569844E3,6.5507812E0,9.5458105E2,1.2786523E3,2.7047043E4,0E0,0E0,5.348242E1,5.650119E1,0E0,3.0234327E1,2.2297754E2,4.2640234E2,5.896179E0,2.8125E-1,2.906955E1,5.363672E0,1.0671763E2,5.268702E1,0E0,7.8322625E-1,3.915103E1,1.1919531E2,0E0,0E0,0E0,0E0,1.03743E2,2.819426E1,1.724258E1,1.4352002E0,8.1221756E1,4.3141876E1,4.2209534E1,5.1154705E1,2.2643335E0,2.7471402E0,9.584639E0,1.4116547E1,0E0,3.158545E1,0E0,0E0,0E0,0E0,0E0,0E0,0E0,0E0,0E0,0E0,0E0,0E0,0E0,0E0,0E0,0E0,0E0,0E0,0E0,0E0,0E0,0E0,0E0,0E0,0E0,0E0],"parents":[2147483647,0,0,1,1,2,2,3,3,4,4,5,5,6,6,9,9,10,10,12,12,13,13,14,14,15,15,16,16,17,17,18,18,19,19,20,20,22,22,23,23,24,24,29,29,30,30,31,31,32,32,33,33,34,34,35,35,36,36,37,37,38,38,39,39,40,40,42,42],"right_children":[2,4,6,8,10,12,14,-1,-1,16,18,-1,20,22,24,26,28,30,32,34,36,-1,38,40,42,-1,-1,-1,-1,44,46,48,50,52,54,56,58,60,62,64,66,-1,68,-1,-1,-1,-1,-1,-1,-1,-1,-1,-1,-1,-1,-1,-1,-1,-1,-1,-1,-1,-1,-1,-1,-1,-1,-1,-1],"split_conditions":[1.08E2,1.38716455E14,2.05E2,1E0,1E0,1.38716455E14,2.21E2,-1.0868124E-1,8.263796E-2,1.387168E14,1E0,1.0870279E-1,1.52E2,1.38716455E14,2.55E2,1E0,1E0,6.4E1,1.01E2,1.28E2,1.71E2,-1.0869236E-1,2.13E2,1E0,1.38716455E14,-6.3305944E-2,-1.6887782E-2,-9.618281E-2,-9.269858E-2,6.3E1,6.5E1,9.3E1,1.07E2,1.27E2,1.29E2,1.7E2,1.77E2,2.08E2,2.15E2,2.22E2,2.53E2,1.0870153E-1,1E0,-3.0141924E-2,1.630444E-1,-9.522728E-2,-3.8379725E-2,-1.4266491E-4,6.6387855E-2,-2.1035852E-2,-6.587394E-2,-1.3893304E-3,9.264017E-2,-8.950966E-2,-1.2853271E-2,1.6486216E-2,9.6777E-2,-6.6778235E-2,2.1861682E-2,1.9622518E-2,-2.1278476E-2,4.3012746E-2,5.3642965E-3,9.1934904E-2,2.2165708E-3,4.4996914E-2,7.7075124E-2,1.0358273E-1,8.6722575E-2],"split_indices":[3,0,3,2,3,0,3,0,0,0,2,0,3,0,3,2,2,3,3,3,3,0,3,2,0,0,0,0,0,3,3,3,3,3,3,3,3,3,3,3,3,0,2,0,0,0,0,0,0,0,0,0,0,0,0,0,0,0,0,0,0,0,0,0,0,0,0,0,0],"split_type":[0,0,0,0,0,0,0,0,0,0,0,0,0,0,0,0,0,0,0,0,0,0,0,0,0,0,0,0,0,0,0,0,0,0,0,0,0,0,0,0,0,0,0,0,0,0,0,0,0,0,0,0,0,0,0,0,0,0,0,0,0,0,0,0,0,0,0,0,0],"sum_hessian":[1.3563431E5,5.882076E4,7.681356E4,4.5874625E4,1.2946136E4,3.968259E4,3.713097E4,4.587351E4,1.1134622E0,1.0566277E4,2.3798586E3,3.8190594E4,1.491997E3,7.8085454E3,2.9322426E4,4.4709564E2,1.0119182E4,1.780504E3,5.993546E2,6.931403E2,7.988566E2,7.6444355E3,1.6410979E2,1.0798317E3,2.8242594E4,4.168822E2,3.0213459E1,9.010871E3,1.1083105E3,1.377324E3,4.0317996E2,5.615654E2,3.7789196E1,3.939992E2,2.9914114E2,2.6972064E2,5.29136E2,5.2149952E1,1.1195984E2,2.4952884E2,8.303028E2,2.2930242E4,5.3123516E3,1.3499233E3,2.740066E1,1.288547E2,2.7432526E2,5.204595E2,4.1105907E1,2.837909E1,9.410106E0,2.4969342E2,1.4430579E2,1.2824713E2,1.7089401E2,1.1254772E2,1.5717291E2,7.498941E1,4.541466E2,2.5801022E1,2.634893E1,2.3996315E1,8.7963524E1,1.153785E1,2.3799098E2,6.53532E2,1.7677081E2,1.657463E3,3.6548884E3],"tree_param":{"num_deleted":"0","num_feature":"4","num_nodes":"69","size_leaf_vector":"0"}},{"base_weights":[2.4600403E-2,-1.0119119E0,8.1950307E-1,-1.0777271E0,-7.831759E-1,1.0393953E0,5.848876E-1,-1.07782006E-1,9.0364456E-2,-9.2166394E-1,-1.937995E-1,1.0780585E-1,1.2838405E-1,-1.0502796E0,1.0191052E0,-5.7085294E-1,-9.375504E-1,-2.7879122E-1,7.183645E-2,5.864681E-3,2.7676162E-1,-1.07794404E-1,9.0617985E-2,3.918998E-1,1.044311E0,-6.069504E-2,-7.742134E-3,-9.425112E-2,-8.961456E-2,-2.3443274E-1,-6.272593E-1,-2.8979594E-1,1.1969864E-1,2.4941748E-1,-2.5202203E-1,9.6068037E-1,8.6304605E-2,1.09854236E-1,-2.6065868E-1,7.356558E-2,4.8932013E-1,1.0780435E-1,9.012593E-1,-2.6963675E-2,5.0321825E-2,-9.98555E-2,4.357672E-3,1.9217402E-2,-1.5203123E-1,1.041105E-1,6.1677E-3,-1.6564976E-2,6.854071E-2,-8.038025E-2,-1.2409041E-3,1.0003431E-1,-4.7281064E-2,-5.2934606E-2,1.9535726E-2,-1.0499109E-3,1.7055484E-2,-5.7251225E-3,-2.9307306E-2,-3.210665E-2,1.8452367E-2,7.772822E-2,4.2281833E-2,1.0195687E-1,8.4884875E-2],"categories":[],"categories_nodes":[],"categories_segments":[],"categories_sizes":[],"default_left":[0,0,0,0,0,0,0,0,0,0,0,0,0,0,0,0,0,0,0,0,0,0,0,0,0,0,0,0,0,0,0,0,0,0,0,0,0,0,0,0,0,0,0,0,0,0,0,0,0,0,0,0,0,0,0,0,0,0,0,0,0,0,0,0,0,0,0,0,0],"id":19,"left_children":[1,3,5,7,9,11,13,-1,-1,15,17,-1,19,21,23,25,27,29,31,33,35,-1,37,39,41,-1,-1,-1,-1,43,45,47,49,51,53,55,57,59,61,63,65,-1,67,-1,-1,-1,-1,-1,-1,-1,-1,-1,-1,-1,-1,-1,-1,-1,-1,-1,-1,-1,-1,-1,-1,-1,-1,-1,-1],"loss_changes":[1.0239724E5,8.1121484E2,3.6281172E3,8.699219E0,9.839004E2,1.2786758E3,2.41643E4,0E0,0E0,5.387207E1,5.183914E1,0E0,2.688992E1,2.254956E2,4.247246E2,7.531723E0,1.0732422E0,2.673471E1,9.678238E0,5.1016624E1,8.705975E1,0E0,1.1772755E0,3.223378E1,1.2377539E2,0E0,0E0,0E0,0E0,4.023828E1,4.8808525E1,3.9086998E1,2.627857E1,7.5706604E1,5.2151917E1,8.752579E0,3.5309452E1,1.1842966E0,4.3364465E-2,1.0787239E1,1.4925308E1,0E0,2.9759521E1,0E0,0E0,0E0,0E0,0E0,0E0,0E0,0E0,0E0,0E0,0E0,0E0,0E0,0E0,0E0,0E0,0E0,0E0,0E0,0E0,0E0,0E0,0E0,0E0,0E0,0E0],"parents":[2147483647,0,0,1,1,2,2,3,3,4,4,5,5,6,6,9,9,10,10,12,12,13,13,14,14,15,15,16,16,17,17,18,18,19,19,20,20,22,22,23,23,24,24,29,29,30,30,31,31,32,32,33,33,34,34,35,35,36,36,37,37,38,38,39,39,40,40,42,42],"right_children":[2,4,6,8,10,12,14,-1,-1,16,18,-1,20,22,24,26,28,30,32,34,36,-1,38,40,42,-1,-1,-1,-1,44,46,48,50,52,54,56,58,60,62,64,66,-1,68,-1,-1,-1,-1,-1,-1,-1,-1,-1,-1,-1,-1,-1,-1,-1,-1,-1,-1,-1,-1,-1,-1,-1,-1,-1,-1],"split_conditions":[1.05E2,1.38716455E14,2.05E2,1E0,1E0,1.38716455E14,2.21E2,-1.07782006E-1,9.0364456E-2,1.387168E14,1E0,1.0780585E-1,1.7E2,1.38716455E14,2.55E2,1E0,1E0,8.5E1,3E0,1.28E2,1.71E2,-1.07794404E-1,2.2E2,1E0,1.38716455E14,-6.069504E-2,-7.742134E-3,-9.425112E-2,-8.961456E-2,6.5E1,8.6E1,2E0,4E0,1.22E2,1.29E2,1E0,1.78E2,2.13E2,1E0,2.29E2,2.24E2,1.0780435E-1,1E0,-2.6963675E-2,5.0321825E-2,-9.98555E-2,4.357672E-3,1.9217402E-2,-1.5203123E-1,1.041105E-1,6.1677E-3,-1.6564976E-2,6.854071E-2,-8.038025E-2,-1.2409041E-3,1.0003431E-1,-4.7281064E-2,-5.2934606E-2,1.9535726E-2,-1.0499109E-3,1.7055484E-2,-5.7251225E-3,-2.9307306E-2,-3.210665E-2,1.8452367E-2,7.772822E-2,4.2281833E-2,1.0195687E-1,8.4884875E-2],"split_indices":[3,0,3,2,3,0,3,0,0,0,2,0,3,0,3,2,2,3,3,3,3,0,3,2,0,0,0,0,0,3,3,3,3,3,3,2,3,3,2,3,3,0,2,0,0,0,0,0,0,0,0,0,0,0,0,0,0,0,0,0,0,0,0,0,0,0,0,0,0],"split_type":[0,0,0,0,0,0,0,0,0,0,0,0,0,0,0,0,0,0,0,0,0,0,0,0,0,0,0,0,0,0,0,0,0,0,0,0,0,0,0,0,0,0,0,0,0,0,0,0,0,0,0,0,0,0,0,0,0,0,0,0,0,0,0,0,0,0,0,0,0],"sum_hessian":[1.242776E5,5.3941016E4,7.0336586E4,4.1885418E4,1.2055599E4,3.630575E4,3.4030836E4,4.1883906E4,1.5102692E0,9.761368E3,2.2942305E3,3.4827496E4,1.4782539E3,7.140369E3,2.6890469E4,4.2449277E2,9.336875E3,1.7380741E3,5.5615625E2,8.10249E2,6.6800494E2,6.971383E3,1.6898653E2,1.039551E3,2.5850918E4,3.953411E2,2.9151657E1,8.3184795E3,1.0183956E3,1.5432925E3,1.9478171E2,6.441337E1,4.917429E2,4.167221E2,3.9352692E2,1.4462433E2,5.233806E2,1.608647E2,8.121838E0,2.4400064E2,7.9555035E2,2.0912982E4,4.937935E3,1.4736001E3,6.9692314E1,1.2506948E2,6.971223E1,4.6890915E1,1.7522457E1,2.812728E1,4.636156E2,2.1380103E2,2.0292107E2,1.1843662E2,2.750903E2,1.4102455E2,3.5997882E0,7.817786E1,4.4520276E2,5.4209167E1,1.06655525E2,1.496595E0,6.6252427E0,5.3133427E1,1.9086722E2,1.472499E2,6.483004E2,1.5102667E3,3.4276682E3],"tree_param":{"num_deleted":"0","num_feature":"4","num_nodes":"69","size_leaf_vector":"0"}},{"base_weights":[2.3079617E-2,-9.9958736E-1,8.093799E-1,-1.0696542E0,-7.636053E-1,1.0286195E0,5.7595074E-1,-1.0697327E-1,7.644458E-2,-9.047622E-1,-2.0869161E-1,1.070075E-1,1.18834525E-1,-1.0414929E0,1.0036466E0,-5.6852305E-1,-9.205365E-1,-2.8650096E-1,1.9202905E-2,1.6225323E-1,-4.384318E-1,-1.06998734E-1,1.0505939E-1,3.3763757E-1,1.0324036E0,-6.081433E-2,-5.9562065E-3,-9.246204E-2,-8.867302E-2,-2.4512011E-1,-6.1209947E-1,5.231383E-1,-1.010729E-2,7.870347E-2,8.9748967E-1,-1.131803E-1,-1.9026661E-1,-3.7639435E-2,1.5867148E-1,4.6959125E-2,4.2795548E-1,1.07005775E-1,8.75832E-1,-2.7907541E-2,4.3210637E-2,-9.794857E-2,-4.34311E-3,3.74481E-2,1.1036314E-1,-2.5331318E-2,4.7837766E-3,1.56058E-2,-1.6750311E-2,-3.0508492E-2,9.8244004E-2,-4.273713E-2,5.7177315E-3,7.1608976E-2,-2.1595415E-2,-6.58886E-3,2.4388572E-2,9.03369E-2,-2.0239198E-4,3.619898E-2,6.827215E-2,1.0136851E-1,8.152752E-2],"categories":[],"categories_nodes":[],"categories_segments":[],"categories_sizes":[],"default_left":[0,0,0,0,0,0,0,0,0,0,0,0,0,0,0,0,0,0,0,0,0,0,0,0,0,0,0,0,0,0,0,0,0,0,0,0,0,0,0,0,0,0,0,0,0,0,0,0,0,0,0,0,0,0,0,0,0,0,0,0,0,0,0,0,0,0,0],"id":20,"left_children":[1,3,5,7,9,11,13,-1,-1,15,17,-1,19,21,23,25,27,29,31,33,35,-1,37,39,41,-1,-1,-1,-1,43,45,47,49,51,53,-1,55,57,59,61,63,-1,65,-1,-1,-1,-1,-1,-1,-1,-1,-1,-1,-1,-1,-1,-1,-1,-1,-1,-1,-1,-1,-1,-1,-1,-1],"loss_changes":[9.157354E4,8.1764453E2,3.2941758E3,6.3046875E0,8.877612E2,1.2519453E3,2.157279E4,0E0,0E0,4.7408203E1,4.0792435E1,0E0,3.5104187E1,2.1318018E2,4.719961E2,8.182587E0,3.7158203E-1,2.2953918E1,8.666419E0,8.248796E1,1.7839533E1,0E0,1.2228452E0,2.6818466E1,1.384414E2,0E0,0E0,0E0,0E0,3.514435E1,4.0214455E1,2.3696976E0,7.83537E0,2.3031355E1,1.4300041E1,0E0,4.6284595E0,6.101526E0,2.2322352E0,1.0215019E1,1.2858429E1,0E0,3.748047E1,0E0,0E0,0E0,0E0,0E0,0E0,0E0,0E0,0E0,0E0,0E0,0E0,0E0,0E0,0E0,0E0,0E0,0E0,0E0,0E0,0E0,0E0,0E0,0E0],"parents":[2147483647,0,0,1,1,2,2,3,3,4,4,5,5,6,6,9,9,10,10,12,12,13,13,14,14,15,15,16,16,17,17,18,18,19,19,20,20,22,22,23,23,24,24,29,29,30,30,31,31,32,32,33,33,34,34,36,36,37,37,38,38,39,39,40,40,42,42],"right_children":[2,4,6,8,10,12,14,-1,-1,16,18,-1,20,22,24,26,28,30,32,34,36,-1,38,40,42,-1,-1,-1,-1,44,46,48,50,52,54,-1,56,58,60,62,64,-1,66,-1,-1,-1,-1,-1,-1,-1,-1,-1,-1,-1,-1,-1,-1,-1,-1,-1,-1,-1,-1,-1,-1,-1,-1],"split_conditions":[1.08E2,1.38716455E14,2.05E2,1E0,1E0,1.38716455E14,2.2E2,-1.0697327E-1,7.644458E-2,1.387168E14,1E0,1.070075E-1,1.92E2,1.387168E14,2.55E2,1E0,1E0,8.5E1,1.387168E14,1.91E2,1.93E2,-1.06998734E-1,1E0,1E0,1.38716455E14,-6.081433E-2,-5.9562065E-3,-9.246204E-2,-8.867302E-2,6.5E1,8.6E1,3.3E1,6E0,1.71E2,1E0,-1.131803E-1,1E0,2.08E2,2.12E2,2.22E2,2.53E2,1.07005775E-1,1E0,-2.7907541E-2,4.3210637E-2,-9.794857E-2,-4.34311E-3,3.74481E-2,1.1036314E-1,-2.5331318E-2,4.7837766E-3,1.56058E-2,-1.6750311E-2,-3.0508492E-2,9.8244004E-2,-4.273713E-2,5.7177315E-3,7.1608976E-2,-2.1595415E-2,-6.58886E-3,2.4388572E-2,9.03369E-2,-2.0239198E-4,3.619898E-2,6.827215E-2,1.0136851E-1,8.152752E-2],"split_indices":[3,0,3,2,3,0,3,0,0,0,2,0,3,0,3,2,2,3,0,3,3,0,2,2,0,0,0,0,0,3,3,3,3,3,2,0,2,3,3,3,3,0,2,0,0,0,0,0,0,0,0,0,0,0,0,0,0,0,0,0,0,0,0,0,0,0,0],"split_type":[0,0,0,0,0,0,0,0,0,0,0,0,0,0,0,0,0,0,0,0,0,0,0,0,0,0,0,0,0,0,0,0,0,0,0,0,0,0,0,0,0,0,0,0,0,0,0,0,0,0,0,0,0,0,0,0,0,0,0,0,0,0,0,0,0,0,0],"sum_hessian":[1.1387796E5,4.9498992E4,6.437897E4,3.8163957E4,1.1335035E4,3.3196746E4,3.1182225E4,3.8162742E4,1.2149916E0,9.035889E3,2.2991467E3,3.1749846E4,1.4468987E3,6.520775E3,2.466145E4,4.0657367E2,8.629314E3,1.7137643E3,5.8538257E2,1.3429716E3,1.0392712E2,6.3627144E3,1.580604E2,1.0212865E3,2.3640162E4,3.7702884E2,2.9544819E1,7.675725E3,9.535893E2,1.5220742E3,1.9169006E2,3.124986E1,5.5413275E2,1.2069275E3,1.360441E2,2.6454054E1,7.747306E1,4.3247314E1,1.1481308E2,2.4246361E2,7.7882294E2,1.905238E4,4.587781E3,1.4499628E3,7.211146E1,1.16015945E2,7.567412E1,2.6188429E1,5.0614324E0,1.05973045E2,4.481597E2,9.1866296E2,2.8826447E2,8.805156E0,1.2723894E2,3.9191757E1,3.8281303E1,7.69691E0,3.5550407E1,3.1645727E1,8.316735E1,1.2173964E1,2.3028964E2,6.205635E2,1.5825946E2,1.3954355E3,3.192345E3],"tree_param":{"num_deleted":"0","num_feature":"4","num_nodes":"67","size_leaf_vector":"0"}},{"base_weights":[2.3357634E-2,-9.856596E-1,8.003201E-1,-1.0625836E0,-7.344497E-1,1.0167102E0,5.703642E-1,-1.0626656E-1,7.3690586E-2,-8.793158E-1,-1.9553813E-1,1.0629572E-1,9.221816E-2,-1.0313995E0,9.922463E-1,-5.223363E-1,-8.9676183E-1,-2.776846E-1,5.0780058E-2,1.2923068E-1,-3.7599513E-1,-1.06281914E-1,6.309664E-2,3.475027E-1,1.0218018E0,-5.4770768E-2,-1.9762142E-2,-9.01623E-2,-8.565166E-2,-2.1414635E-1,-5.056881E-1,-8.266287E-2,1.3521108E-1,5.4765616E-2,8.5189396E-1,-1.014465E-1,-1.6590023E-1,1.6072485E-1,-8.2096405E-2,6.2521726E-2,4.4030467E-1,1.06293775E-1,8.535707E-1,-3.06643E-2,6.4577095E-2,-8.9614406E-2,-3.2334622E-2,6.603708E-3,-1.2595324E-1,7.092532E-2,1.8549965E-3,2.4783287E-2,-4.01042E-3,-2.729483E-2,9.4099745E-2,-4.0432796E-2,9.976865E-3,1.6839673E-4,4.374469E-2,-4.213819E-2,2.630838E-3,-2.5981015E-2,2.0520153E-2,2.239875E-2,5.118942E-2,1.0000922E-1,7.904667E-2],"categories":[],"categories_nodes":[],"categories_segments":[],"categories_sizes":[],"default_left":[0,0,0,0,0,0,0,0,0,0,0,0,0,0,0,0,0,0,0,0,0,0,0,0,0,0,0,0,0,0,0,0,0,0,0,0,0,0,0,0,0,0,0,0,0,0,0,0,0,0,0,0,0,0,0,0,0,0,0,0,0,0,0,0,0,0,0],"id":21,"left_children":[1,3,5,7,9,11,13,-1,-1,15,17,-1,19,21,23,25,27,29,31,33,35,-1,37,39,41,-1,-1,-1,-1,43,45,47,49,51,53,-1,55,57,59,61,63,-1,65,-1,-1,-1,-1,-1,-1,-1,-1,-1,-1,-1,-1,-1,-1,-1,-1,-1,-1,-1,-1,-1,-1,-1,-1],"loss_changes":[8.171568E4,8.7547266E2,2.929711E3,5.90625E0,8.299795E2,1.2969922E3,1.9294863E4,0E0,0E0,5.1723145E1,4.56239E1,0E0,2.5114622E1,2.0477637E2,4.3029883E2,3.128395E0,7.910156E-1,2.4382187E1,6.372119E0,7.212738E1,1.407988E1,0E0,2.3812933E0,2.6210144E1,1.4863086E2,0E0,0E0,0E0,0E0,1.0549432E2,2.588884E1,3.8479515E1,2.3169342E1,2.2300371E1,1.2807449E1,0E0,5.178464E0,4.4104724E0,2.5059087E0,1.1315034E1,1.1472321E1,0E0,3.8511475E1,0E0,0E0,0E0,0E0,0E0,0E0,0E0,0E0,0E0,0E0,0E0,0E0,0E0,0E0,0E0,0E0,0E0,0E0,0E0,0E0,0E0,0E0,0E0,0E0],"parents":[2147483647,0,0,1,1,2,2,3,3,4,4,5,5,6,6,9,9,10,10,12,12,13,13,14,14,15,15,16,16,17,17,18,18,19,19,20,20,22,22,23,23,24,24,29,29,30,30,31,31,32,32,33,33,34,34,36,36,37,37,38,38,39,39,40,40,42,42],"right_children":[2,4,6,8,10,12,14,-1,-1,16,18,-1,20,22,24,26,28,30,32,34,36,-1,38,40,42,-1,-1,-1,-1,44,46,48,50,52,54,-1,56,58,60,62,64,-1,66,-1,-1,-1,-1,-1,-1,-1,-1,-1,-1,-1,-1,-1,-1,-1,-1,-1,-1,-1,-1,-1,-1,-1,-1],"split_conditions":[1.06E2,1.38716455E14,2.05E2,1E0,1E0,1.38716455E14,2.21E2,-1.0626656E-1,7.3690586E-2,1.387168E14,1E0,1.0629572E-1,1.92E2,1.38716455E14,2.55E2,1E0,1E0,6.4E1,2.1E1,1.91E2,1.93E2,-1.06281914E-1,2.16E2,1E0,1.38716455E14,-5.4770768E-2,-1.9762142E-2,-9.01623E-2,-8.565166E-2,3.5E1,6.5E1,1.6E1,3.2E1,1.28E2,1E0,-1.014465E-1,1E0,2.14E2,1E0,2.37E2,2.38E2,1.06293775E-1,1E0,-3.06643E-2,6.4577095E-2,-8.9614406E-2,-3.2334622E-2,6.603708E-3,-1.2595324E-1,7.092532E-2,1.8549965E-3,2.4783287E-2,-4.01042E-3,-2.729483E-2,9.4099745E-2,-4.0432796E-2,9.976865E-3,1.6839673E-4,4.374469E-2,-4.213819E-2,2.630838E-3,-2.5981015E-2,2.0520153E-2,2.239875E-2,5.118942E-2,1.0000922E-1,7.904667E-2],"split_indices":[3,0,3,2,3,0,3,0,0,0,2,0,3,0,3,2,2,3,3,3,3,0,3,2,0,0,0,0,0,3,3,3,3,3,2,0,2,3,2,3,3,0,2,0,0,0,0,0,0,0,0,0,0,0,0,0,0,0,0,0,0,0,0,0,0,0,0],"split_type":[0,0,0,0,0,0,0,0,0,0,0,0,0,0,0,0,0,0,0,0,0,0,0,0,0,0,0,0,0,0,0,0,0,0,0,0,0,0,0,0,0,0,0,0,0,0,0,0,0,0,0,0,0,0,0,0,0,0,0,0,0,0,0,0,0,0,0],"sum_hessian":[1.0423137E5,4.5344105E4,5.888726E4,3.471168E4,1.0632423E4,3.0336748E4,2.8550512E4,3.4710508E4,1.1738534E0,8.379325E3,2.2530981E3,2.8891332E4,1.4454161E3,5.9518037E3,2.2598709E4,3.918694E2,7.9874556E3,1.6895201E3,5.635779E2,1.3401969E3,1.052193E2,5.7857417E3,1.6606235E2,9.910926E2,2.1607615E4,3.62833E2,2.9036392E1,7.107545E3,8.7991064E2,1.3228247E3,3.666954E2,2.1840712E2,3.4517075E2,1.2159755E3,1.2422141E2,2.510317E1,8.011613E1,9.9231705E1,6.683065E1,2.4387195E2,7.4722064E2,1.7357936E4,4.24968E3,1.1949354E3,1.27889336E2,1.15485954E2,2.5120946E2,1.9474461E2,2.3662508E1,5.744205E1,2.877287E2,4.0010968E2,8.158658E2,8.966392E0,1.1525502E2,4.194772E1,3.8168407E1,6.3653893E1,3.5577816E1,1.5483439E1,5.1347206E1,7.457548E1,1.6929648E2,1.8682697E2,5.603937E2,1.2748213E3,2.9748591E3],"tree_param":{"num_deleted":"0","num_feature":"4","num_nodes":"67","size_leaf_vector":"0"}},{"base_weights":[2.339614E-2,-9.706896E-1,7.922687E-1,-1.0561237E0,-7.007476E-1,1.0088711E0,5.6211495E-1,-1.0562158E-1,7.6212905E-2,-8.540251E-1,-1.699256E-1,1.0566014E-1,1.21506E-1,-1.0261655E0,9.7877276E-1,-4.5515803E-1,-8.744972E-1,-2.3797435E-1,2.3817085E-2,-4.6966977E-2,2.587829E-1,-1.0564697E-1,7.980425E-4,3.120448E-1,1.0115589E0,-4.9672488E-2,1.5430668E-3,-8.795E-2,-8.332009E-2,-1.3500193E-1,-3.947429E-1,-1.9186863E-1,7.710182E-2,2.026944E-1,-4.084909E-1,5.7431227E-1,8.964884E-2,-2.0826767E-1,5.841706E-2,5.070756E-2,3.978437E-1,1.0565791E-1,8.316728E-1,-2.0360773E-2,3.9860266E-1,-9.877315E-2,-1.9703332E-2,6.9095157E-3,-1.3379054E-1,1.08750544E-1,8.3024503E-4,-2.3257306E-2,6.339095E-2,-7.5291514E-2,-9.235271E-4,2.2536768E-2,9.3361154E-2,-4.065928E-2,2.0581989E-2,2.1123989E-3,-8.842044E-2,1.7398022E-2,-6.216758E-3,1.6469808E-2,-3.818914E-2,3.19728E-2,7.036261E-2,9.888482E-2,7.659669E-2],"categories":[],"categories_nodes":[],"categories_segments":[],"categories_sizes":[],"default_left":[0,0,0,0,0,0,0,0,0,0,0,0,0,0,0,0,0,0,0,0,0,0,0,0,0,0,0,0,0,0,0,0,0,0,0,0,0,0,0,0,0,0,0,0,0,0,0,0,0,0,0,0,0,0,0,0,0,0,0,0,0,0,0,0,0,0,0,0,0],"id":22,"left_children":[1,3,5,7,9,11,13,-1,-1,15,17,-1,19,21,23,25,27,29,31,33,35,-1,37,39,41,-1,-1,-1,-1,43,45,47,49,51,53,55,57,59,61,63,65,-1,67,-1,-1,-1,-1,-1,-1,-1,-1,-1,-1,-1,-1,-1,-1,-1,-1,-1,-1,-1,-1,-1,-1,-1,-1,-1,-1],"loss_changes":[7.294718E4,9.591992E2,2.6822617E3,6.0976562E0,8.142632E2,1.1740547E3,1.7269281E4,0E0,0E0,6.3020996E1,2.9589943E1,0E0,3.2765232E1,1.6877979E2,4.515586E2,7.46521E0,7.9248047E-1,2.6756233E1,6.7287836E0,5.755022E1,4.1601364E1,0E0,1.8967264E0,2.1737053E1,1.586836E2,0E0,0E0,0E0,0E0,2.8463754E2,7.693491E1,3.4790718E1,3.2605682E1,7.096118E1,3.5803524E1,3.3915367E1,2.9445045E1,5.2936244E0,1.7307587E0,1.1945921E1,1.7220634E1,0E0,4.002124E1,0E0,0E0,0E0,0E0,0E0,0E0,0E0,0E0,0E0,0E0,0E0,0E0,0E0,0E0,0E0,0E0,0E0,0E0,0E0,0E0,0E0,0E0,0E0,0E0,0E0,0E0],"parents":[2147483647,0,0,1,1,2,2,3,3,4,4,5,5,6,6,9,9,10,10,12,12,13,13,14,14,15,15,16,16,17,17,18,18,19,19,20,20,22,22,23,23,24,24,29,29,30,30,31,31,32,32,33,33,34,34,35,35,36,36,37,37,38,38,39,39,40,40,42,42],"right_children":[2,4,6,8,10,12,14,-1,-1,16,18,-1,20,22,24,26,28,30,32,34,36,-1,38,40,42,-1,-1,-1,-1,44,46,48,50,52,54,56,58,60,62,64,66,-1,68,-1,-1,-1,-1,-1,-1,-1,-1,-1,-1,-1,-1,-1,-1,-1,-1,-1,-1,-1,-1,-1,-1,-1,-1,-1,-1],"split_conditions":[1.08E2,1.38716455E14,2.05E2,1E0,1E0,1.38716455E14,2.2E2,-1.0562158E-1,7.6212905E-2,1.387168E14,1E0,1.0566014E-1,1.47E2,1.387168E14,2.55E2,1E0,1E0,3.2E1,6E0,1.28E2,1.71E2,-1.0564697E-1,2.09E2,1E0,1.38716455E14,-4.9672488E-2,1.5430668E-3,-8.795E-2,-8.332009E-2,3.1E1,3.5E1,4E0,8E0,1.22E2,1.31E2,1.7E2,1.8E2,2.08E2,2.16E2,2.52E2,2.53E2,1.0565791E-1,1E0,-2.0360773E-2,3.9860266E-1,-9.877315E-2,-1.9703332E-2,6.9095157E-3,-1.3379054E-1,1.08750544E-1,8.3024503E-4,-2.3257306E-2,6.339095E-2,-7.5291514E-2,-9.235271E-4,2.2536768E-2,9.3361154E-2,-4.065928E-2,2.0581989E-2,2.1123989E-3,-8.842044E-2,1.7398022E-2,-6.216758E-3,1.6469808E-2,-3.818914E-2,3.19728E-2,7.036261E-2,9.888482E-2,7.659669E-2],"split_indices":[3,0,3,2,3,0,3,0,0,0,2,0,3,0,3,2,2,3,3,3,3,0,3,2,0,0,0,0,0,3,3,3,3,3,3,3,3,3,3,3,3,0,2,0,0,0,0,0,0,0,0,0,0,0,0,0,0,0,0,0,0,0,0,0,0,0,0,0,0],"split_type":[0,0,0,0,0,0,0,0,0,0,0,0,0,0,0,0,0,0,0,0,0,0,0,0,0,0,0,0,0,0,0,0,0,0,0,0,0,0,0,0,0,0,0,0,0,0,0,0,0,0,0,0,0,0,0,0,0,0,0,0,0,0,0,0,0,0,0,0,0],"sum_hessian":[9.543795E4,4.162289E4,5.3815062E4,3.161434E4,1.0008553E4,2.7721967E4,2.6093098E4,3.1613156E4,1.1825724E0,7.765591E3,2.242962E3,2.6306766E4,1.4151996E3,5.422254E3,2.0670844E4,3.802484E2,7.3853423E3,1.6597687E3,5.8319324E2,6.3569775E2,7.7950183E2,5.266809E3,1.5544485E2,9.693323E2,1.9701512E4,3.493362E2,3.0912207E1,6.56922E3,8.1612244E2,1.00288873E3,6.568799E2,1.15019E2,4.6817422E2,3.762832E2,2.5941455E2,2.7118845E2,5.0831335E2,3.3020004E1,1.2242485E2,2.3997545E2,7.293568E2,1.5753901E4,3.94761E3,9.8740137E2,1.5487409E1,1.6324994E2,4.9362997E2,9.445124E1,2.0567762E1,2.8902239E1,4.3927197E2,1.8749095E2,1.8879227E2,1.38795E2,1.20619545E2,1.3840216E2,1.3278629E2,9.59498E1,4.1236356E2,2.53767E1,7.643305E0,6.228794E1,6.0136906E1,1.90419E2,4.9556435E1,5.825764E2,1.467804E2,1.1596221E3,2.787988E3],"tree_param":{"num_deleted":"0","num_feature":"4","num_nodes":"69","size_leaf_vector":"0"}},{"base_weights":[2.35687E-2,-9.56966E-1,7.8328544E-1,-1.0504653E0,-6.716102E-1,9.976116E-1,5.559041E-1,-1.0505619E-1,7.34904E-2,-8.3693844E-1,-1.3067836E-1,1.0509183E-1,8.378329E-2,-1.0157626E0,9.651516E-1,-4.6297082E-1,-8.5684365E-1,-2.0131657E-1,6.618516E-2,-6.9792025E-2,2.0943211E-1,-1.05078936E-1,6.652085E-2,2.650808E-1,1.0018444E0,-4.9609926E-2,-6.9422997E-3,-8.609893E-2,-8.226223E-2,-1.3975774E-1,-4.2200026E-1,-7.732793E-2,1.5911642E-1,1.8746457E-1,-4.305987E-1,4.9399513E-1,6.361631E-2,-9.40406E-2,1.3485636E-1,6.056712E-1,1.9561036E-1,1.0508932E-1,8.094629E-1,-2.2592857E-2,5.972565E-2,-5.4809768E-2,1.2142451E-2,5.744775E-3,-9.386426E-2,7.238544E-2,6.5846154E-3,-9.561953E-3,7.8509904E-2,-8.026332E-2,-1.5355601E-2,1.2429069E-2,8.997119E-2,-1.5717288E-2,3.3892184E-2,1.8021146E-2,-3.9115455E-2,3.609276E-2,4.930738E-3,9.887346E-3,8.132833E-2,-8.058691E-2,3.2191634E-2,9.794672E-2,7.396923E-2],"categories":[],"categories_nodes":[],"categories_segments":[],"categories_sizes":[],"default_left":[0,0,0,0,0,0,0,0,0,0,0,0,0,0,0,0,0,0,0,0,0,0,0,0,0,0,0,0,0,0,0,0,0,0,0,0,0,0,0,0,0,0,0,0,0,0,0,0,0,0,0,0,0,0,0,0,0,0,0,0,0,0,0,0,0,0,0,0,0],"id":23,"left_children":[1,3,5,7,9,11,13,-1,-1,15,17,-1,19,21,23,25,27,29,31,33,35,-1,37,39,41,-1,-1,-1,-1,43,45,